digraph Tree {
node [shape=box, style="filled, rounded", color="black", fontname="helvetica"] ;
edge [fontname="helvetica"] ;
0 [label=<pixel_568 &le; 0.5<br/>gini = 0.9<br/>samples = 30986<br/>value = [4868, 5496, 4853, 4921, 4913, 4397, 4790, 5017, 4763<br/>4982]<br/>class = 1>, fillcolor="#fffffd"] ;
1 [label=<pixel_409 &le; 0.5<br/>gini = 0.874<br/>samples = 19081<br/>value = [604, 4629, 1122, 2609, 4684, 1921, 2772, 4854, 2217<br/>4845]<br/>class = 7>, fillcolor="#ffffff"] ;
0 -> 1 [labeldistance=2.5, labelangle=45, headlabel="True"] ;
2 [label=<pixel_295 &le; 91.5<br/>gini = 0.736<br/>samples = 5614<br/>value = [477, 4261, 441, 630, 248, 891, 625, 461, 708, 175]<br/>class = 1>, fillcolor="#f3f4ac"] ;
1 -> 2 ;
3 [label=<pixel_431 &le; 0.5<br/>gini = 0.872<br/>samples = 2131<br/>value = [357, 587, 192, 254, 176, 621, 493, 149, 436, 102]<br/>class = 5>, fillcolor="#fdfeff"] ;
2 -> 3 ;
4 [label=<pixel_234 &le; 5.5<br/>gini = 0.823<br/>samples = 1041<br/>value = [238, 559, 80, 77, 64, 156, 101, 135, 146, 63]<br/>class = 1>, fillcolor="#f8f9d1"] ;
3 -> 4 ;
5 [label=<pixel_373 &le; 0.5<br/>gini = 0.634<br/>samples = 569<br/>value = [82, 525, 24, 46, 33, 57, 28, 43, 43, 15]<br/>class = 1>, fillcolor="#eff193"] ;
4 -> 5 ;
6 [label=<pixel_654 &le; 0.5<br/>gini = 0.452<br/>samples = 447<br/>value = [8, 525, 19, 31, 8, 28, 13, 30, 42, 12]<br/>class = 1>, fillcolor="#eaec71"] ;
5 -> 6 ;
7 [label=<pixel_493 &le; 59.5<br/>gini = 0.297<br/>samples = 333<br/>value = [8, 439, 3, 12, 6, 11, 11, 17, 10, 8]<br/>class = 1>, fillcolor="#e7e95b"] ;
6 -> 7 ;
8 [label=<pixel_377 &le; 13.5<br/>gini = 0.186<br/>samples = 306<br/>value = [7, 439, 3, 8, 1, 3, 9, 7, 6, 4]<br/>class = 1>, fillcolor="#e5e84d"] ;
7 -> 8 ;
9 [label=<pixel_552 &le; 48.0<br/>gini = 0.832<br/>samples = 31<br/>value = [7, 11, 2, 8, 1, 0, 8, 6, 1, 1]<br/>class = 1>, fillcolor="#fdfdef"] ;
8 -> 9 ;
10 [label=<pixel_294 &le; 119.5<br/>gini = 0.73<br/>samples = 18<br/>value = [0, 11, 2, 5, 0, 0, 1, 4, 1, 1]<br/>class = 1>, fillcolor="#f6f7c4"] ;
9 -> 10 ;
11 [label=<pixel_298 &le; 3.0<br/>gini = 0.797<br/>samples = 12<br/>value = [0, 2, 2, 5, 0, 0, 1, 4, 1, 1]<br/>class = 3>, fillcolor="#eefdf2"] ;
10 -> 11 ;
12 [label=<pixel_544 &le; 62.0<br/>gini = 0.617<br/>samples = 6<br/>value = [0, 0, 2, 5, 0, 0, 1, 0, 0, 1]<br/>class = 3>, fillcolor="#aaf4ba"] ;
11 -> 12 ;
13 [label=<pixel_349 &le; 156.5<br/>gini = 0.278<br/>samples = 3<br/>value = [0, 0, 0, 5, 0, 0, 0, 0, 0, 1]<br/>class = 3>, fillcolor="#61ea7e"] ;
12 -> 13 ;
14 [label=<gini = 0.0<br/>samples = 2<br/>value = [0, 0, 0, 5, 0, 0, 0, 0, 0, 0]<br/>class = 3>, fillcolor="#39e55e"] ;
13 -> 14 ;
15 [label=<gini = 0.0<br/>samples = 1<br/>value = [0, 0, 0, 0, 0, 0, 0, 0, 0, 1]<br/>class = 9>, fillcolor="#e53958"] ;
13 -> 15 ;
16 [label=<pixel_464 &le; 127.5<br/>gini = 0.444<br/>samples = 3<br/>value = [0, 0, 2, 0, 0, 0, 1, 0, 0, 0]<br/>class = 2>, fillcolor="#bdf29c"] ;
12 -> 16 ;
17 [label=<gini = 0.0<br/>samples = 2<br/>value = [0, 0, 2, 0, 0, 0, 0, 0, 0, 0]<br/>class = 2>, fillcolor="#7be539"] ;
16 -> 17 ;
18 [label=<gini = 0.0<br/>samples = 1<br/>value = [0, 0, 0, 0, 0, 0, 1, 0, 0, 0]<br/>class = 6>, fillcolor="#3c39e5"] ;
16 -> 18 ;
19 [label=<pixel_346 &le; 149.5<br/>gini = 0.571<br/>samples = 6<br/>value = [0, 2, 0, 0, 0, 0, 0, 4, 1, 0]<br/>class = 7>, fillcolor="#dab0f5"] ;
11 -> 19 ;
20 [label=<pixel_290 &le; 95.0<br/>gini = 0.444<br/>samples = 5<br/>value = [0, 2, 0, 0, 0, 0, 0, 4, 0, 0]<br/>class = 7>, fillcolor="#d19cf2"] ;
19 -> 20 ;
21 [label=<pixel_626 &le; 66.0<br/>gini = 0.444<br/>samples = 3<br/>value = [0, 2, 0, 0, 0, 0, 0, 1, 0, 0]<br/>class = 1>, fillcolor="#f0f29c"] ;
20 -> 21 ;
22 [label=<gini = 0.0<br/>samples = 2<br/>value = [0, 2, 0, 0, 0, 0, 0, 0, 0, 0]<br/>class = 1>, fillcolor="#e2e539"] ;
21 -> 22 ;
23 [label=<gini = 0.0<br/>samples = 1<br/>value = [0, 0, 0, 0, 0, 0, 0, 1, 0, 0]<br/>class = 7>, fillcolor="#a339e5"] ;
21 -> 23 ;
24 [label=<gini = 0.0<br/>samples = 2<br/>value = [0, 0, 0, 0, 0, 0, 0, 3, 0, 0]<br/>class = 7>, fillcolor="#a339e5"] ;
20 -> 24 ;
25 [label=<gini = 0.0<br/>samples = 1<br/>value = [0, 0, 0, 0, 0, 0, 0, 0, 1, 0]<br/>class = 8>, fillcolor="#e539c0"] ;
19 -> 25 ;
26 [label=<gini = 0.0<br/>samples = 6<br/>value = [0, 9, 0, 0, 0, 0, 0, 0, 0, 0]<br/>class = 1>, fillcolor="#e2e539"] ;
10 -> 26 ;
27 [label=<pixel_353 &le; 7.0<br/>gini = 0.72<br/>samples = 13<br/>value = [7, 0, 0, 3, 1, 0, 7, 2, 0, 0]<br/>class = 0>, fillcolor="#ffffff"] ;
9 -> 27 ;
28 [label=<pixel_173 &le; 119.0<br/>gini = 0.219<br/>samples = 4<br/>value = [7, 0, 0, 0, 1, 0, 0, 0, 0, 0]<br/>class = 0>, fillcolor="#e99355"] ;
27 -> 28 ;
29 [label=<gini = 0.0<br/>samples = 3<br/>value = [7, 0, 0, 0, 0, 0, 0, 0, 0, 0]<br/>class = 0>, fillcolor="#e58139"] ;
28 -> 29 ;
30 [label=<gini = 0.0<br/>samples = 1<br/>value = [0, 0, 0, 0, 1, 0, 0, 0, 0, 0]<br/>class = 4>, fillcolor="#39e5c5"] ;
28 -> 30 ;
31 [label=<pixel_321 &le; 87.0<br/>gini = 0.569<br/>samples = 9<br/>value = [0, 0, 0, 3, 0, 0, 7, 2, 0, 0]<br/>class = 6>, fillcolor="#a8a7f3"] ;
27 -> 31 ;
32 [label=<gini = 0.0<br/>samples = 5<br/>value = [0, 0, 0, 0, 0, 0, 7, 0, 0, 0]<br/>class = 6>, fillcolor="#3c39e5"] ;
31 -> 32 ;
33 [label=<pixel_487 &le; 121.0<br/>gini = 0.48<br/>samples = 4<br/>value = [0, 0, 0, 3, 0, 0, 0, 2, 0, 0]<br/>class = 3>, fillcolor="#bdf6c9"] ;
31 -> 33 ;
34 [label=<pixel_180 &le; 84.0<br/>gini = 0.444<br/>samples = 3<br/>value = [0, 0, 0, 1, 0, 0, 0, 2, 0, 0]<br/>class = 7>, fillcolor="#d19cf2"] ;
33 -> 34 ;
35 [label=<gini = 0.0<br/>samples = 2<br/>value = [0, 0, 0, 0, 0, 0, 0, 2, 0, 0]<br/>class = 7>, fillcolor="#a339e5"] ;
34 -> 35 ;
36 [label=<gini = 0.0<br/>samples = 1<br/>value = [0, 0, 0, 1, 0, 0, 0, 0, 0, 0]<br/>class = 3>, fillcolor="#39e55e"] ;
34 -> 36 ;
37 [label=<gini = 0.0<br/>samples = 1<br/>value = [0, 0, 0, 2, 0, 0, 0, 0, 0, 0]<br/>class = 3>, fillcolor="#39e55e"] ;
33 -> 37 ;
38 [label=<pixel_685 &le; 224.0<br/>gini = 0.062<br/>samples = 275<br/>value = [0, 428, 1, 0, 0, 3, 1, 1, 5, 3]<br/>class = 1>, fillcolor="#e3e63f"] ;
8 -> 38 ;
39 [label=<pixel_243 &le; 43.5<br/>gini = 0.045<br/>samples = 272<br/>value = [0, 427, 1, 0, 0, 1, 1, 1, 5, 1]<br/>class = 1>, fillcolor="#e3e63e"] ;
38 -> 39 ;
40 [label=<pixel_258 &le; 38.5<br/>gini = 0.014<br/>samples = 266<br/>value = [0, 426, 0, 0, 0, 0, 1, 1, 0, 1]<br/>class = 1>, fillcolor="#e2e53a"] ;
39 -> 40 ;
41 [label=<pixel_240 &le; 52.0<br/>gini = 0.005<br/>samples = 264<br/>value = [0, 426, 0, 0, 0, 0, 0, 0, 0, 1]<br/>class = 1>, fillcolor="#e2e539"] ;
40 -> 41 ;
42 [label=<gini = 0.0<br/>samples = 261<br/>value = [0, 422, 0, 0, 0, 0, 0, 0, 0, 0]<br/>class = 1>, fillcolor="#e2e539"] ;
41 -> 42 ;
43 [label=<pixel_241 &le; 75.5<br/>gini = 0.32<br/>samples = 3<br/>value = [0, 4, 0, 0, 0, 0, 0, 0, 0, 1]<br/>class = 1>, fillcolor="#e9ec6a"] ;
41 -> 43 ;
44 [label=<gini = 0.0<br/>samples = 1<br/>value = [0, 0, 0, 0, 0, 0, 0, 0, 0, 1]<br/>class = 9>, fillcolor="#e53958"] ;
43 -> 44 ;
45 [label=<gini = 0.0<br/>samples = 2<br/>value = [0, 4, 0, 0, 0, 0, 0, 0, 0, 0]<br/>class = 1>, fillcolor="#e2e539"] ;
43 -> 45 ;
46 [label=<pixel_399 &le; 124.5<br/>gini = 0.5<br/>samples = 2<br/>value = [0, 0, 0, 0, 0, 0, 1, 1, 0, 0]<br/>class = 6>, fillcolor="#ffffff"] ;
40 -> 46 ;
47 [label=<gini = 0.0<br/>samples = 1<br/>value = [0, 0, 0, 0, 0, 0, 0, 1, 0, 0]<br/>class = 7>, fillcolor="#a339e5"] ;
46 -> 47 ;
48 [label=<gini = 0.0<br/>samples = 1<br/>value = [0, 0, 0, 0, 0, 0, 1, 0, 0, 0]<br/>class = 6>, fillcolor="#3c39e5"] ;
46 -> 48 ;
49 [label=<pixel_294 &le; 13.0<br/>gini = 0.562<br/>samples = 6<br/>value = [0, 1, 1, 0, 0, 1, 0, 0, 5, 0]<br/>class = 8>, fillcolor="#f08edb"] ;
39 -> 49 ;
50 [label=<pixel_352 &le; 253.0<br/>gini = 0.5<br/>samples = 2<br/>value = [0, 1, 1, 0, 0, 0, 0, 0, 0, 0]<br/>class = 1>, fillcolor="#ffffff"] ;
49 -> 50 ;
51 [label=<gini = 0.0<br/>samples = 1<br/>value = [0, 1, 0, 0, 0, 0, 0, 0, 0, 0]<br/>class = 1>, fillcolor="#e2e539"] ;
50 -> 51 ;
52 [label=<gini = 0.0<br/>samples = 1<br/>value = [0, 0, 1, 0, 0, 0, 0, 0, 0, 0]<br/>class = 2>, fillcolor="#7be539"] ;
50 -> 52 ;
53 [label=<pixel_216 &le; 201.0<br/>gini = 0.278<br/>samples = 4<br/>value = [0, 0, 0, 0, 0, 1, 0, 0, 5, 0]<br/>class = 8>, fillcolor="#ea61cd"] ;
49 -> 53 ;
54 [label=<gini = 0.0<br/>samples = 3<br/>value = [0, 0, 0, 0, 0, 0, 0, 0, 5, 0]<br/>class = 8>, fillcolor="#e539c0"] ;
53 -> 54 ;
55 [label=<gini = 0.0<br/>samples = 1<br/>value = [0, 0, 0, 0, 0, 1, 0, 0, 0, 0]<br/>class = 5>, fillcolor="#399de5"] ;
53 -> 55 ;
56 [label=<pixel_657 &le; 179.5<br/>gini = 0.64<br/>samples = 3<br/>value = [0, 1, 0, 0, 0, 2, 0, 0, 0, 2]<br/>class = 5>, fillcolor="#ffffff"] ;
38 -> 56 ;
57 [label=<gini = 0.0<br/>samples = 1<br/>value = [0, 0, 0, 0, 0, 2, 0, 0, 0, 0]<br/>class = 5>, fillcolor="#399de5"] ;
56 -> 57 ;
58 [label=<pixel_266 &le; 135.5<br/>gini = 0.444<br/>samples = 2<br/>value = [0, 1, 0, 0, 0, 0, 0, 0, 0, 2]<br/>class = 9>, fillcolor="#f29cac"] ;
56 -> 58 ;
59 [label=<gini = 0.0<br/>samples = 1<br/>value = [0, 0, 0, 0, 0, 0, 0, 0, 0, 2]<br/>class = 9>, fillcolor="#e53958"] ;
58 -> 59 ;
60 [label=<gini = 0.0<br/>samples = 1<br/>value = [0, 1, 0, 0, 0, 0, 0, 0, 0, 0]<br/>class = 1>, fillcolor="#e2e539"] ;
58 -> 60 ;
61 [label=<pixel_159 &le; 35.5<br/>gini = 0.832<br/>samples = 27<br/>value = [1, 0, 0, 4, 5, 8, 2, 10, 4, 4]<br/>class = 7>, fillcolor="#f9f2fd"] ;
7 -> 61 ;
62 [label=<pixel_413 &le; 225.5<br/>gini = 0.822<br/>samples = 24<br/>value = [1, 0, 0, 4, 5, 2, 2, 10, 4, 4]<br/>class = 7>, fillcolor="#eedafa"] ;
61 -> 62 ;
63 [label=<pixel_637 &le; 12.0<br/>gini = 0.785<br/>samples = 21<br/>value = [1, 0, 0, 4, 0, 2, 2, 10, 4, 4]<br/>class = 7>, fillcolor="#e7cbf8"] ;
62 -> 63 ;
64 [label=<pixel_151 &le; 153.0<br/>gini = 0.753<br/>samples = 19<br/>value = [1, 0, 0, 4, 0, 2, 2, 10, 4, 1]<br/>class = 7>, fillcolor="#e3c4f7"] ;
63 -> 64 ;
65 [label=<pixel_571 &le; 10.0<br/>gini = 0.712<br/>samples = 16<br/>value = [1, 0, 0, 1, 0, 2, 2, 10, 4, 1]<br/>class = 7>, fillcolor="#dfb9f6"] ;
64 -> 65 ;
66 [label=<pixel_512 &le; 17.0<br/>gini = 0.469<br/>samples = 9<br/>value = [0, 0, 0, 1, 0, 1, 1, 10, 0, 1]<br/>class = 7>, fillcolor="#bf76ed"] ;
65 -> 66 ;
67 [label=<pixel_460 &le; 138.5<br/>gini = 0.292<br/>samples = 7<br/>value = [0, 0, 0, 1, 0, 0, 1, 10, 0, 0]<br/>class = 7>, fillcolor="#b45dea"] ;
66 -> 67 ;
68 [label=<pixel_464 &le; 236.5<br/>gini = 0.165<br/>samples = 6<br/>value = [0, 0, 0, 1, 0, 0, 0, 10, 0, 0]<br/>class = 7>, fillcolor="#ac4de8"] ;
67 -> 68 ;
69 [label=<gini = 0.0<br/>samples = 5<br/>value = [0, 0, 0, 0, 0, 0, 0, 10, 0, 0]<br/>class = 7>, fillcolor="#a339e5"] ;
68 -> 69 ;
70 [label=<gini = 0.0<br/>samples = 1<br/>value = [0, 0, 0, 1, 0, 0, 0, 0, 0, 0]<br/>class = 3>, fillcolor="#39e55e"] ;
68 -> 70 ;
71 [label=<gini = 0.0<br/>samples = 1<br/>value = [0, 0, 0, 0, 0, 0, 1, 0, 0, 0]<br/>class = 6>, fillcolor="#3c39e5"] ;
67 -> 71 ;
72 [label=<pixel_241 &le; 107.5<br/>gini = 0.5<br/>samples = 2<br/>value = [0, 0, 0, 0, 0, 1, 0, 0, 0, 1]<br/>class = 5>, fillcolor="#ffffff"] ;
66 -> 72 ;
73 [label=<gini = 0.0<br/>samples = 1<br/>value = [0, 0, 0, 0, 0, 0, 0, 0, 0, 1]<br/>class = 9>, fillcolor="#e53958"] ;
72 -> 73 ;
74 [label=<gini = 0.0<br/>samples = 1<br/>value = [0, 0, 0, 0, 0, 1, 0, 0, 0, 0]<br/>class = 5>, fillcolor="#399de5"] ;
72 -> 74 ;
75 [label=<pixel_217 &le; 15.5<br/>gini = 0.612<br/>samples = 7<br/>value = [1, 0, 0, 0, 0, 1, 1, 0, 4, 0]<br/>class = 8>, fillcolor="#f29ce0"] ;
65 -> 75 ;
76 [label=<pixel_355 &le; 103.0<br/>gini = 0.32<br/>samples = 5<br/>value = [0, 0, 0, 0, 0, 0, 1, 0, 4, 0]<br/>class = 8>, fillcolor="#ec6ad0"] ;
75 -> 76 ;
77 [label=<gini = 0.0<br/>samples = 4<br/>value = [0, 0, 0, 0, 0, 0, 0, 0, 4, 0]<br/>class = 8>, fillcolor="#e539c0"] ;
76 -> 77 ;
78 [label=<gini = 0.0<br/>samples = 1<br/>value = [0, 0, 0, 0, 0, 0, 1, 0, 0, 0]<br/>class = 6>, fillcolor="#3c39e5"] ;
76 -> 78 ;
79 [label=<pixel_263 &le; 38.0<br/>gini = 0.5<br/>samples = 2<br/>value = [1, 0, 0, 0, 0, 1, 0, 0, 0, 0]<br/>class = 0>, fillcolor="#ffffff"] ;
75 -> 79 ;
80 [label=<gini = 0.0<br/>samples = 1<br/>value = [1, 0, 0, 0, 0, 0, 0, 0, 0, 0]<br/>class = 0>, fillcolor="#e58139"] ;
79 -> 80 ;
81 [label=<gini = 0.0<br/>samples = 1<br/>value = [0, 0, 0, 0, 0, 1, 0, 0, 0, 0]<br/>class = 5>, fillcolor="#399de5"] ;
79 -> 81 ;
82 [label=<gini = 0.0<br/>samples = 3<br/>value = [0, 0, 0, 3, 0, 0, 0, 0, 0, 0]<br/>class = 3>, fillcolor="#39e55e"] ;
64 -> 82 ;
83 [label=<gini = 0.0<br/>samples = 2<br/>value = [0, 0, 0, 0, 0, 0, 0, 0, 0, 3]<br/>class = 9>, fillcolor="#e53958"] ;
63 -> 83 ;
84 [label=<gini = 0.0<br/>samples = 3<br/>value = [0, 0, 0, 0, 5, 0, 0, 0, 0, 0]<br/>class = 4>, fillcolor="#39e5c5"] ;
62 -> 84 ;
85 [label=<gini = 0.0<br/>samples = 3<br/>value = [0, 0, 0, 0, 0, 6, 0, 0, 0, 0]<br/>class = 5>, fillcolor="#399de5"] ;
61 -> 85 ;
86 [label=<pixel_630 &le; 5.0<br/>gini = 0.739<br/>samples = 114<br/>value = [0, 86, 16, 19, 2, 17, 2, 13, 32, 4]<br/>class = 1>, fillcolor="#f5f6bc"] ;
6 -> 86 ;
87 [label=<pixel_433 &le; 76.0<br/>gini = 0.443<br/>samples = 69<br/>value = [0, 86, 3, 4, 2, 0, 2, 13, 3, 4]<br/>class = 1>, fillcolor="#ebed74"] ;
86 -> 87 ;
88 [label=<pixel_709 &le; 1.0<br/>gini = 0.691<br/>samples = 16<br/>value = [0, 6, 1, 2, 0, 0, 0, 11, 0, 4]<br/>class = 7>, fillcolor="#e5c8f8"] ;
87 -> 88 ;
89 [label=<pixel_354 &le; 1.0<br/>gini = 0.742<br/>samples = 10<br/>value = [0, 6, 1, 2, 0, 0, 0, 3, 0, 4]<br/>class = 1>, fillcolor="#fafbde"] ;
88 -> 89 ;
90 [label=<pixel_654 &le; 150.0<br/>gini = 0.54<br/>samples = 7<br/>value = [0, 6, 1, 0, 0, 0, 0, 3, 0, 0]<br/>class = 1>, fillcolor="#f3f4aa"] ;
89 -> 90 ;
91 [label=<pixel_295 &le; 6.5<br/>gini = 0.245<br/>samples = 4<br/>value = [0, 6, 0, 0, 0, 0, 0, 1, 0, 0]<br/>class = 1>, fillcolor="#e7e95a"] ;
90 -> 91 ;
92 [label=<gini = 0.0<br/>samples = 3<br/>value = [0, 6, 0, 0, 0, 0, 0, 0, 0, 0]<br/>class = 1>, fillcolor="#e2e539"] ;
91 -> 92 ;
93 [label=<gini = 0.0<br/>samples = 1<br/>value = [0, 0, 0, 0, 0, 0, 0, 1, 0, 0]<br/>class = 7>, fillcolor="#a339e5"] ;
91 -> 93 ;
94 [label=<pixel_155 &le; 37.0<br/>gini = 0.444<br/>samples = 3<br/>value = [0, 0, 1, 0, 0, 0, 0, 2, 0, 0]<br/>class = 7>, fillcolor="#d19cf2"] ;
90 -> 94 ;
95 [label=<gini = 0.0<br/>samples = 2<br/>value = [0, 0, 0, 0, 0, 0, 0, 2, 0, 0]<br/>class = 7>, fillcolor="#a339e5"] ;
94 -> 95 ;
96 [label=<gini = 0.0<br/>samples = 1<br/>value = [0, 0, 1, 0, 0, 0, 0, 0, 0, 0]<br/>class = 2>, fillcolor="#7be539"] ;
94 -> 96 ;
97 [label=<pixel_437 &le; 9.0<br/>gini = 0.444<br/>samples = 3<br/>value = [0, 0, 0, 2, 0, 0, 0, 0, 0, 4]<br/>class = 9>, fillcolor="#f29cac"] ;
89 -> 97 ;
98 [label=<gini = 0.0<br/>samples = 2<br/>value = [0, 0, 0, 0, 0, 0, 0, 0, 0, 4]<br/>class = 9>, fillcolor="#e53958"] ;
97 -> 98 ;
99 [label=<gini = 0.0<br/>samples = 1<br/>value = [0, 0, 0, 2, 0, 0, 0, 0, 0, 0]<br/>class = 3>, fillcolor="#39e55e"] ;
97 -> 99 ;
100 [label=<gini = 0.0<br/>samples = 6<br/>value = [0, 0, 0, 0, 0, 0, 0, 8, 0, 0]<br/>class = 7>, fillcolor="#a339e5"] ;
88 -> 100 ;
101 [label=<pixel_464 &le; 25.0<br/>gini = 0.257<br/>samples = 53<br/>value = [0, 80, 2, 2, 2, 0, 2, 2, 3, 0]<br/>class = 1>, fillcolor="#e6e956"] ;
87 -> 101 ;
102 [label=<pixel_264 &le; 31.0<br/>gini = 0.152<br/>samples = 50<br/>value = [0, 80, 2, 0, 2, 0, 0, 0, 3, 0]<br/>class = 1>, fillcolor="#e4e74a"] ;
101 -> 102 ;
103 [label=<pixel_212 &le; 174.0<br/>gini = 0.048<br/>samples = 47<br/>value = [0, 80, 2, 0, 0, 0, 0, 0, 0, 0]<br/>class = 1>, fillcolor="#e3e63e"] ;
102 -> 103 ;
104 [label=<gini = 0.0<br/>samples = 46<br/>value = [0, 80, 0, 0, 0, 0, 0, 0, 0, 0]<br/>class = 1>, fillcolor="#e2e539"] ;
103 -> 104 ;
105 [label=<gini = 0.0<br/>samples = 1<br/>value = [0, 0, 2, 0, 0, 0, 0, 0, 0, 0]<br/>class = 2>, fillcolor="#7be539"] ;
103 -> 105 ;
106 [label=<pixel_269 &le; 197.5<br/>gini = 0.48<br/>samples = 3<br/>value = [0, 0, 0, 0, 2, 0, 0, 0, 3, 0]<br/>class = 8>, fillcolor="#f6bdea"] ;
102 -> 106 ;
107 [label=<gini = 0.0<br/>samples = 1<br/>value = [0, 0, 0, 0, 2, 0, 0, 0, 0, 0]<br/>class = 4>, fillcolor="#39e5c5"] ;
106 -> 107 ;
108 [label=<gini = 0.0<br/>samples = 2<br/>value = [0, 0, 0, 0, 0, 0, 0, 0, 3, 0]<br/>class = 8>, fillcolor="#e539c0"] ;
106 -> 108 ;
109 [label=<pixel_485 &le; 73.0<br/>gini = 0.667<br/>samples = 3<br/>value = [0, 0, 0, 2, 0, 0, 2, 2, 0, 0]<br/>class = 3>, fillcolor="#ffffff"] ;
101 -> 109 ;
110 [label=<pixel_247 &le; 23.5<br/>gini = 0.5<br/>samples = 2<br/>value = [0, 0, 0, 2, 0, 0, 2, 0, 0, 0]<br/>class = 3>, fillcolor="#ffffff"] ;
109 -> 110 ;
111 [label=<gini = 0.0<br/>samples = 1<br/>value = [0, 0, 0, 0, 0, 0, 2, 0, 0, 0]<br/>class = 6>, fillcolor="#3c39e5"] ;
110 -> 111 ;
112 [label=<gini = 0.0<br/>samples = 1<br/>value = [0, 0, 0, 2, 0, 0, 0, 0, 0, 0]<br/>class = 3>, fillcolor="#39e55e"] ;
110 -> 112 ;
113 [label=<gini = 0.0<br/>samples = 1<br/>value = [0, 0, 0, 0, 0, 0, 0, 2, 0, 0]<br/>class = 7>, fillcolor="#a339e5"] ;
109 -> 113 ;
114 [label=<pixel_151 &le; 2.0<br/>gini = 0.722<br/>samples = 45<br/>value = [0, 0, 13, 15, 0, 17, 0, 0, 29, 0]<br/>class = 8>, fillcolor="#fad5f2"] ;
86 -> 114 ;
115 [label=<pixel_190 &le; 64.0<br/>gini = 0.482<br/>samples = 23<br/>value = [0, 0, 0, 0, 0, 17, 0, 0, 25, 0]<br/>class = 8>, fillcolor="#f7c0eb"] ;
114 -> 115 ;
116 [label=<pixel_516 &le; 14.0<br/>gini = 0.278<br/>samples = 17<br/>value = [0, 0, 0, 0, 0, 5, 0, 0, 25, 0]<br/>class = 8>, fillcolor="#ea61cd"] ;
115 -> 116 ;
117 [label=<gini = 0.0<br/>samples = 2<br/>value = [0, 0, 0, 0, 0, 5, 0, 0, 0, 0]<br/>class = 5>, fillcolor="#399de5"] ;
116 -> 117 ;
118 [label=<gini = 0.0<br/>samples = 15<br/>value = [0, 0, 0, 0, 0, 0, 0, 0, 25, 0]<br/>class = 8>, fillcolor="#e539c0"] ;
116 -> 118 ;
119 [label=<gini = 0.0<br/>samples = 6<br/>value = [0, 0, 0, 0, 0, 12, 0, 0, 0, 0]<br/>class = 5>, fillcolor="#399de5"] ;
115 -> 119 ;
120 [label=<pixel_489 &le; 44.0<br/>gini = 0.6<br/>samples = 22<br/>value = [0, 0, 13, 15, 0, 0, 0, 0, 4, 0]<br/>class = 3>, fillcolor="#eafcee"] ;
114 -> 120 ;
121 [label=<gini = 0.0<br/>samples = 10<br/>value = [0, 0, 0, 14, 0, 0, 0, 0, 0, 0]<br/>class = 3>, fillcolor="#39e55e"] ;
120 -> 121 ;
122 [label=<pixel_463 &le; 195.0<br/>gini = 0.426<br/>samples = 12<br/>value = [0, 0, 13, 1, 0, 0, 0, 0, 4, 0]<br/>class = 2>, fillcolor="#aaee80"] ;
120 -> 122 ;
123 [label=<pixel_126 &le; 76.0<br/>gini = 0.24<br/>samples = 10<br/>value = [0, 0, 13, 1, 0, 0, 0, 0, 1, 0]<br/>class = 2>, fillcolor="#8ee955"] ;
122 -> 123 ;
124 [label=<pixel_572 &le; 19.0<br/>gini = 0.5<br/>samples = 2<br/>value = [0, 0, 0, 1, 0, 0, 0, 0, 1, 0]<br/>class = 3>, fillcolor="#ffffff"] ;
123 -> 124 ;
125 [label=<gini = 0.0<br/>samples = 1<br/>value = [0, 0, 0, 1, 0, 0, 0, 0, 0, 0]<br/>class = 3>, fillcolor="#39e55e"] ;
124 -> 125 ;
126 [label=<gini = 0.0<br/>samples = 1<br/>value = [0, 0, 0, 0, 0, 0, 0, 0, 1, 0]<br/>class = 8>, fillcolor="#e539c0"] ;
124 -> 126 ;
127 [label=<gini = 0.0<br/>samples = 8<br/>value = [0, 0, 13, 0, 0, 0, 0, 0, 0, 0]<br/>class = 2>, fillcolor="#7be539"] ;
123 -> 127 ;
128 [label=<gini = 0.0<br/>samples = 2<br/>value = [0, 0, 0, 0, 0, 0, 0, 0, 3, 0]<br/>class = 8>, fillcolor="#e539c0"] ;
122 -> 128 ;
129 [label=<pixel_537 &le; 127.0<br/>gini = 0.766<br/>samples = 122<br/>value = [74, 0, 5, 15, 25, 29, 15, 13, 1, 3]<br/>class = 0>, fillcolor="#f7d9c4"] ;
5 -> 129 ;
130 [label=<pixel_100 &le; 50.5<br/>gini = 0.843<br/>samples = 80<br/>value = [17, 0, 4, 15, 24, 26, 15, 13, 1, 3]<br/>class = 5>, fillcolor="#fbfdfe"] ;
129 -> 130 ;
131 [label=<pixel_179 &le; 121.5<br/>gini = 0.806<br/>samples = 69<br/>value = [17, 0, 0, 15, 23, 26, 1, 13, 1, 3]<br/>class = 5>, fillcolor="#f7fbfe"] ;
130 -> 131 ;
132 [label=<pixel_297 &le; 32.0<br/>gini = 0.759<br/>samples = 53<br/>value = [17, 0, 0, 0, 23, 23, 1, 12, 0, 3]<br/>class = 4>, fillcolor="#ffffff"] ;
131 -> 132 ;
133 [label=<pixel_156 &le; 102.0<br/>gini = 0.734<br/>samples = 38<br/>value = [16, 0, 0, 0, 9, 23, 0, 9, 0, 3]<br/>class = 5>, fillcolor="#dfeffb"] ;
132 -> 133 ;
134 [label=<pixel_372 &le; 156.0<br/>gini = 0.694<br/>samples = 32<br/>value = [6, 0, 0, 0, 7, 23, 0, 9, 0, 3]<br/>class = 5>, fillcolor="#b8dcf6"] ;
133 -> 134 ;
135 [label=<pixel_524 &le; 73.0<br/>gini = 0.403<br/>samples = 15<br/>value = [0, 0, 0, 0, 0, 18, 0, 4, 0, 2]<br/>class = 5>, fillcolor="#74baed"] ;
134 -> 135 ;
136 [label=<pixel_708 &le; 87.5<br/>gini = 0.18<br/>samples = 12<br/>value = [0, 0, 0, 0, 0, 18, 0, 0, 0, 2]<br/>class = 5>, fillcolor="#4fa8e8"] ;
135 -> 136 ;
137 [label=<pixel_319 &le; 163.5<br/>gini = 0.1<br/>samples = 11<br/>value = [0, 0, 0, 0, 0, 18, 0, 0, 0, 1]<br/>class = 5>, fillcolor="#44a2e6"] ;
136 -> 137 ;
138 [label=<pixel_348 &le; 44.5<br/>gini = 0.278<br/>samples = 3<br/>value = [0, 0, 0, 0, 0, 5, 0, 0, 0, 1]<br/>class = 5>, fillcolor="#61b1ea"] ;
137 -> 138 ;
139 [label=<gini = 0.0<br/>samples = 2<br/>value = [0, 0, 0, 0, 0, 5, 0, 0, 0, 0]<br/>class = 5>, fillcolor="#399de5"] ;
138 -> 139 ;
140 [label=<gini = 0.0<br/>samples = 1<br/>value = [0, 0, 0, 0, 0, 0, 0, 0, 0, 1]<br/>class = 9>, fillcolor="#e53958"] ;
138 -> 140 ;
141 [label=<gini = 0.0<br/>samples = 8<br/>value = [0, 0, 0, 0, 0, 13, 0, 0, 0, 0]<br/>class = 5>, fillcolor="#399de5"] ;
137 -> 141 ;
142 [label=<gini = 0.0<br/>samples = 1<br/>value = [0, 0, 0, 0, 0, 0, 0, 0, 0, 1]<br/>class = 9>, fillcolor="#e53958"] ;
136 -> 142 ;
143 [label=<gini = 0.0<br/>samples = 3<br/>value = [0, 0, 0, 0, 0, 0, 0, 4, 0, 0]<br/>class = 7>, fillcolor="#a339e5"] ;
135 -> 143 ;
144 [label=<pixel_490 &le; 1.0<br/>gini = 0.764<br/>samples = 17<br/>value = [6, 0, 0, 0, 7, 5, 0, 5, 0, 1]<br/>class = 4>, fillcolor="#f4fefc"] ;
134 -> 144 ;
145 [label=<pixel_544 &le; 5.0<br/>gini = 0.5<br/>samples = 6<br/>value = [5, 0, 0, 0, 0, 0, 0, 5, 0, 0]<br/>class = 0>, fillcolor="#ffffff"] ;
144 -> 145 ;
146 [label=<gini = 0.0<br/>samples = 3<br/>value = [0, 0, 0, 0, 0, 0, 0, 5, 0, 0]<br/>class = 7>, fillcolor="#a339e5"] ;
145 -> 146 ;
147 [label=<gini = 0.0<br/>samples = 3<br/>value = [5, 0, 0, 0, 0, 0, 0, 0, 0, 0]<br/>class = 0>, fillcolor="#e58139"] ;
145 -> 147 ;
148 [label=<pixel_712 &le; 66.0<br/>gini = 0.612<br/>samples = 11<br/>value = [1, 0, 0, 0, 7, 5, 0, 0, 0, 1]<br/>class = 4>, fillcolor="#d3f9f2"] ;
144 -> 148 ;
149 [label=<pixel_547 &le; 156.0<br/>gini = 0.545<br/>samples = 9<br/>value = [1, 0, 0, 0, 7, 2, 0, 0, 0, 1]<br/>class = 4>, fillcolor="#91f1df"] ;
148 -> 149 ;
150 [label=<gini = 0.0<br/>samples = 5<br/>value = [0, 0, 0, 0, 7, 0, 0, 0, 0, 0]<br/>class = 4>, fillcolor="#39e5c5"] ;
149 -> 150 ;
151 [label=<pixel_513 &le; 244.0<br/>gini = 0.625<br/>samples = 4<br/>value = [1, 0, 0, 0, 0, 2, 0, 0, 0, 1]<br/>class = 5>, fillcolor="#bddef6"] ;
149 -> 151 ;
152 [label=<gini = 0.0<br/>samples = 2<br/>value = [0, 0, 0, 0, 0, 2, 0, 0, 0, 0]<br/>class = 5>, fillcolor="#399de5"] ;
151 -> 152 ;
153 [label=<pixel_548 &le; 251.0<br/>gini = 0.5<br/>samples = 2<br/>value = [1, 0, 0, 0, 0, 0, 0, 0, 0, 1]<br/>class = 0>, fillcolor="#ffffff"] ;
151 -> 153 ;
154 [label=<gini = 0.0<br/>samples = 1<br/>value = [1, 0, 0, 0, 0, 0, 0, 0, 0, 0]<br/>class = 0>, fillcolor="#e58139"] ;
153 -> 154 ;
155 [label=<gini = 0.0<br/>samples = 1<br/>value = [0, 0, 0, 0, 0, 0, 0, 0, 0, 1]<br/>class = 9>, fillcolor="#e53958"] ;
153 -> 155 ;
156 [label=<gini = 0.0<br/>samples = 2<br/>value = [0, 0, 0, 0, 0, 3, 0, 0, 0, 0]<br/>class = 5>, fillcolor="#399de5"] ;
148 -> 156 ;
157 [label=<pixel_398 &le; 1.5<br/>gini = 0.278<br/>samples = 6<br/>value = [10, 0, 0, 0, 2, 0, 0, 0, 0, 0]<br/>class = 0>, fillcolor="#ea9a61"] ;
133 -> 157 ;
158 [label=<gini = 0.0<br/>samples = 5<br/>value = [10, 0, 0, 0, 0, 0, 0, 0, 0, 0]<br/>class = 0>, fillcolor="#e58139"] ;
157 -> 158 ;
159 [label=<gini = 0.0<br/>samples = 1<br/>value = [0, 0, 0, 0, 2, 0, 0, 0, 0, 0]<br/>class = 4>, fillcolor="#39e5c5"] ;
157 -> 159 ;
160 [label=<pixel_212 &le; 82.5<br/>gini = 0.427<br/>samples = 15<br/>value = [1, 0, 0, 0, 14, 0, 1, 3, 0, 0]<br/>class = 4>, fillcolor="#77edd7"] ;
132 -> 160 ;
161 [label=<pixel_316 &le; 123.0<br/>gini = 0.311<br/>samples = 13<br/>value = [1, 0, 0, 0, 14, 0, 1, 1, 0, 0]<br/>class = 4>, fillcolor="#5eead0"] ;
160 -> 161 ;
162 [label=<gini = 0.0<br/>samples = 10<br/>value = [0, 0, 0, 0, 14, 0, 0, 0, 0, 0]<br/>class = 4>, fillcolor="#39e5c5"] ;
161 -> 162 ;
163 [label=<pixel_202 &le; 23.5<br/>gini = 0.667<br/>samples = 3<br/>value = [1, 0, 0, 0, 0, 0, 1, 1, 0, 0]<br/>class = 0>, fillcolor="#ffffff"] ;
161 -> 163 ;
164 [label=<gini = 0.0<br/>samples = 1<br/>value = [0, 0, 0, 0, 0, 0, 0, 1, 0, 0]<br/>class = 7>, fillcolor="#a339e5"] ;
163 -> 164 ;
165 [label=<pixel_407 &le; 123.5<br/>gini = 0.5<br/>samples = 2<br/>value = [1, 0, 0, 0, 0, 0, 1, 0, 0, 0]<br/>class = 0>, fillcolor="#ffffff"] ;
163 -> 165 ;
166 [label=<gini = 0.0<br/>samples = 1<br/>value = [1, 0, 0, 0, 0, 0, 0, 0, 0, 0]<br/>class = 0>, fillcolor="#e58139"] ;
165 -> 166 ;
167 [label=<gini = 0.0<br/>samples = 1<br/>value = [0, 0, 0, 0, 0, 0, 1, 0, 0, 0]<br/>class = 6>, fillcolor="#3c39e5"] ;
165 -> 167 ;
168 [label=<gini = 0.0<br/>samples = 2<br/>value = [0, 0, 0, 0, 0, 0, 0, 2, 0, 0]<br/>class = 7>, fillcolor="#a339e5"] ;
160 -> 168 ;
169 [label=<pixel_206 &le; 137.5<br/>gini = 0.41<br/>samples = 16<br/>value = [0, 0, 0, 15, 0, 3, 0, 1, 1, 0]<br/>class = 3>, fillcolor="#73ed8d"] ;
131 -> 169 ;
170 [label=<pixel_541 &le; 50.5<br/>gini = 0.215<br/>samples = 13<br/>value = [0, 0, 0, 15, 0, 0, 0, 1, 1, 0]<br/>class = 3>, fillcolor="#52e872"] ;
169 -> 170 ;
171 [label=<pixel_430 &le; 68.5<br/>gini = 0.117<br/>samples = 12<br/>value = [0, 0, 0, 15, 0, 0, 0, 1, 0, 0]<br/>class = 3>, fillcolor="#46e769"] ;
170 -> 171 ;
172 [label=<gini = 0.0<br/>samples = 11<br/>value = [0, 0, 0, 15, 0, 0, 0, 0, 0, 0]<br/>class = 3>, fillcolor="#39e55e"] ;
171 -> 172 ;
173 [label=<gini = 0.0<br/>samples = 1<br/>value = [0, 0, 0, 0, 0, 0, 0, 1, 0, 0]<br/>class = 7>, fillcolor="#a339e5"] ;
171 -> 173 ;
174 [label=<gini = 0.0<br/>samples = 1<br/>value = [0, 0, 0, 0, 0, 0, 0, 0, 1, 0]<br/>class = 8>, fillcolor="#e539c0"] ;
170 -> 174 ;
175 [label=<gini = 0.0<br/>samples = 3<br/>value = [0, 0, 0, 0, 0, 3, 0, 0, 0, 0]<br/>class = 5>, fillcolor="#399de5"] ;
169 -> 175 ;
176 [label=<pixel_319 &le; 117.0<br/>gini = 0.41<br/>samples = 11<br/>value = [0, 0, 4, 0, 1, 0, 14, 0, 0, 0]<br/>class = 6>, fillcolor="#7d7bee"] ;
130 -> 176 ;
177 [label=<pixel_213 &le; 43.0<br/>gini = 0.32<br/>samples = 3<br/>value = [0, 0, 4, 0, 1, 0, 0, 0, 0, 0]<br/>class = 2>, fillcolor="#9cec6a"] ;
176 -> 177 ;
178 [label=<gini = 0.0<br/>samples = 1<br/>value = [0, 0, 0, 0, 1, 0, 0, 0, 0, 0]<br/>class = 4>, fillcolor="#39e5c5"] ;
177 -> 178 ;
179 [label=<gini = 0.0<br/>samples = 2<br/>value = [0, 0, 4, 0, 0, 0, 0, 0, 0, 0]<br/>class = 2>, fillcolor="#7be539"] ;
177 -> 179 ;
180 [label=<gini = 0.0<br/>samples = 8<br/>value = [0, 0, 0, 0, 0, 0, 14, 0, 0, 0]<br/>class = 6>, fillcolor="#3c39e5"] ;
176 -> 180 ;
181 [label=<pixel_379 &le; 26.0<br/>gini = 0.152<br/>samples = 42<br/>value = [57, 0, 1, 0, 1, 3, 0, 0, 0, 0]<br/>class = 0>, fillcolor="#e78c4a"] ;
129 -> 181 ;
182 [label=<pixel_298 &le; 253.0<br/>gini = 0.034<br/>samples = 38<br/>value = [56, 0, 0, 0, 1, 0, 0, 0, 0, 0]<br/>class = 0>, fillcolor="#e5833d"] ;
181 -> 182 ;
183 [label=<gini = 0.0<br/>samples = 37<br/>value = [56, 0, 0, 0, 0, 0, 0, 0, 0, 0]<br/>class = 0>, fillcolor="#e58139"] ;
182 -> 183 ;
184 [label=<gini = 0.0<br/>samples = 1<br/>value = [0, 0, 0, 0, 1, 0, 0, 0, 0, 0]<br/>class = 4>, fillcolor="#39e5c5"] ;
182 -> 184 ;
185 [label=<pixel_358 &le; 125.5<br/>gini = 0.56<br/>samples = 4<br/>value = [1, 0, 1, 0, 0, 3, 0, 0, 0, 0]<br/>class = 5>, fillcolor="#9ccef2"] ;
181 -> 185 ;
186 [label=<gini = 0.0<br/>samples = 2<br/>value = [0, 0, 0, 0, 0, 3, 0, 0, 0, 0]<br/>class = 5>, fillcolor="#399de5"] ;
185 -> 186 ;
187 [label=<pixel_483 &le; 125.5<br/>gini = 0.5<br/>samples = 2<br/>value = [1, 0, 1, 0, 0, 0, 0, 0, 0, 0]<br/>class = 0>, fillcolor="#ffffff"] ;
185 -> 187 ;
188 [label=<gini = 0.0<br/>samples = 1<br/>value = [0, 0, 1, 0, 0, 0, 0, 0, 0, 0]<br/>class = 2>, fillcolor="#7be539"] ;
187 -> 188 ;
189 [label=<gini = 0.0<br/>samples = 1<br/>value = [1, 0, 0, 0, 0, 0, 0, 0, 0, 0]<br/>class = 0>, fillcolor="#e58139"] ;
187 -> 189 ;
190 [label=<pixel_325 &le; 51.5<br/>gini = 0.872<br/>samples = 472<br/>value = [156, 34, 56, 31, 31, 99, 73, 92, 103, 48]<br/>class = 0>, fillcolor="#fdf4ee"] ;
4 -> 190 ;
191 [label=<pixel_492 &le; 13.0<br/>gini = 0.809<br/>samples = 272<br/>value = [143, 33, 21, 2, 29, 69, 20, 55, 4, 34]<br/>class = 0>, fillcolor="#f9e4d4"] ;
190 -> 191 ;
192 [label=<pixel_718 &le; 49.5<br/>gini = 0.563<br/>samples = 143<br/>value = [137, 2, 5, 0, 8, 19, 6, 30, 2, 6]<br/>class = 0>, fillcolor="#f0b68c"] ;
191 -> 192 ;
193 [label=<pixel_627 &le; 0.5<br/>gini = 0.503<br/>samples = 131<br/>value = [137, 2, 5, 0, 8, 15, 6, 18, 1, 6]<br/>class = 0>, fillcolor="#eeac7c"] ;
192 -> 193 ;
194 [label=<pixel_410 &le; 4.5<br/>gini = 0.715<br/>samples = 53<br/>value = [42, 1, 4, 0, 8, 5, 6, 18, 0, 5]<br/>class = 0>, fillcolor="#f6d4bc"] ;
193 -> 194 ;
195 [label=<pixel_398 &le; 8.5<br/>gini = 0.52<br/>samples = 37<br/>value = [42, 1, 4, 0, 0, 2, 6, 4, 0, 3]<br/>class = 0>, fillcolor="#eeae80"] ;
194 -> 195 ;
196 [label=<pixel_498 &le; 67.5<br/>gini = 0.821<br/>samples = 14<br/>value = [3, 1, 4, 0, 0, 2, 6, 3, 0, 2]<br/>class = 6>, fillcolor="#e8e8fc"] ;
195 -> 196 ;
197 [label=<pixel_457 &le; 242.0<br/>gini = 0.837<br/>samples = 10<br/>value = [3, 1, 4, 0, 0, 2, 2, 3, 0, 2]<br/>class = 2>, fillcolor="#f6fdf1"] ;
196 -> 197 ;
198 [label=<pixel_263 &le; 30.5<br/>gini = 0.806<br/>samples = 9<br/>value = [0, 1, 4, 0, 0, 2, 2, 3, 0, 2]<br/>class = 2>, fillcolor="#f3fded"] ;
197 -> 198 ;
199 [label=<pixel_463 &le; 8.0<br/>gini = 0.444<br/>samples = 4<br/>value = [0, 0, 4, 0, 0, 0, 2, 0, 0, 0]<br/>class = 2>, fillcolor="#bdf29c"] ;
198 -> 199 ;
200 [label=<gini = 0.0<br/>samples = 3<br/>value = [0, 0, 4, 0, 0, 0, 0, 0, 0, 0]<br/>class = 2>, fillcolor="#7be539"] ;
199 -> 200 ;
201 [label=<gini = 0.0<br/>samples = 1<br/>value = [0, 0, 0, 0, 0, 0, 2, 0, 0, 0]<br/>class = 6>, fillcolor="#3c39e5"] ;
199 -> 201 ;
202 [label=<pixel_293 &le; 51.0<br/>gini = 0.719<br/>samples = 5<br/>value = [0, 1, 0, 0, 0, 2, 0, 3, 0, 2]<br/>class = 7>, fillcolor="#f0defb"] ;
198 -> 202 ;
203 [label=<pixel_688 &le; 6.0<br/>gini = 0.375<br/>samples = 3<br/>value = [0, 1, 0, 0, 0, 0, 0, 3, 0, 0]<br/>class = 7>, fillcolor="#c27bee"] ;
202 -> 203 ;
204 [label=<gini = 0.0<br/>samples = 2<br/>value = [0, 0, 0, 0, 0, 0, 0, 3, 0, 0]<br/>class = 7>, fillcolor="#a339e5"] ;
203 -> 204 ;
205 [label=<gini = 0.0<br/>samples = 1<br/>value = [0, 1, 0, 0, 0, 0, 0, 0, 0, 0]<br/>class = 1>, fillcolor="#e2e539"] ;
203 -> 205 ;
206 [label=<pixel_212 &le; 126.5<br/>gini = 0.5<br/>samples = 2<br/>value = [0, 0, 0, 0, 0, 2, 0, 0, 0, 2]<br/>class = 5>, fillcolor="#ffffff"] ;
202 -> 206 ;
207 [label=<gini = 0.0<br/>samples = 1<br/>value = [0, 0, 0, 0, 0, 0, 0, 0, 0, 2]<br/>class = 9>, fillcolor="#e53958"] ;
206 -> 207 ;
208 [label=<gini = 0.0<br/>samples = 1<br/>value = [0, 0, 0, 0, 0, 2, 0, 0, 0, 0]<br/>class = 5>, fillcolor="#399de5"] ;
206 -> 208 ;
209 [label=<gini = 0.0<br/>samples = 1<br/>value = [3, 0, 0, 0, 0, 0, 0, 0, 0, 0]<br/>class = 0>, fillcolor="#e58139"] ;
197 -> 209 ;
210 [label=<gini = 0.0<br/>samples = 4<br/>value = [0, 0, 0, 0, 0, 0, 4, 0, 0, 0]<br/>class = 6>, fillcolor="#3c39e5"] ;
196 -> 210 ;
211 [label=<pixel_318 &le; 246.0<br/>gini = 0.094<br/>samples = 23<br/>value = [39, 0, 0, 0, 0, 0, 0, 1, 0, 1]<br/>class = 0>, fillcolor="#e68743"] ;
195 -> 211 ;
212 [label=<pixel_426 &le; 38.0<br/>gini = 0.049<br/>samples = 22<br/>value = [39, 0, 0, 0, 0, 0, 0, 0, 0, 1]<br/>class = 0>, fillcolor="#e6843e"] ;
211 -> 212 ;
213 [label=<pixel_232 &le; 104.5<br/>gini = 0.444<br/>samples = 2<br/>value = [2, 0, 0, 0, 0, 0, 0, 0, 0, 1]<br/>class = 0>, fillcolor="#f2c09c"] ;
212 -> 213 ;
214 [label=<gini = 0.0<br/>samples = 1<br/>value = [0, 0, 0, 0, 0, 0, 0, 0, 0, 1]<br/>class = 9>, fillcolor="#e53958"] ;
213 -> 214 ;
215 [label=<gini = 0.0<br/>samples = 1<br/>value = [2, 0, 0, 0, 0, 0, 0, 0, 0, 0]<br/>class = 0>, fillcolor="#e58139"] ;
213 -> 215 ;
216 [label=<gini = 0.0<br/>samples = 20<br/>value = [37, 0, 0, 0, 0, 0, 0, 0, 0, 0]<br/>class = 0>, fillcolor="#e58139"] ;
212 -> 216 ;
217 [label=<gini = 0.0<br/>samples = 1<br/>value = [0, 0, 0, 0, 0, 0, 0, 1, 0, 0]<br/>class = 7>, fillcolor="#a339e5"] ;
211 -> 217 ;
218 [label=<pixel_458 &le; 73.0<br/>gini = 0.626<br/>samples = 16<br/>value = [0, 0, 0, 0, 8, 3, 0, 14, 0, 2]<br/>class = 7>, fillcolor="#e2c0f7"] ;
194 -> 218 ;
219 [label=<pixel_513 &le; 169.5<br/>gini = 0.421<br/>samples = 14<br/>value = [0, 0, 0, 0, 0, 3, 0, 14, 0, 2]<br/>class = 7>, fillcolor="#c077ed"] ;
218 -> 219 ;
220 [label=<pixel_711 &le; 127.0<br/>gini = 0.219<br/>samples = 11<br/>value = [0, 0, 0, 0, 0, 2, 0, 14, 0, 0]<br/>class = 7>, fillcolor="#b055e9"] ;
219 -> 220 ;
221 [label=<gini = 0.0<br/>samples = 10<br/>value = [0, 0, 0, 0, 0, 0, 0, 14, 0, 0]<br/>class = 7>, fillcolor="#a339e5"] ;
220 -> 221 ;
222 [label=<gini = 0.0<br/>samples = 1<br/>value = [0, 0, 0, 0, 0, 2, 0, 0, 0, 0]<br/>class = 5>, fillcolor="#399de5"] ;
220 -> 222 ;
223 [label=<pixel_482 &le; 126.0<br/>gini = 0.444<br/>samples = 3<br/>value = [0, 0, 0, 0, 0, 1, 0, 0, 0, 2]<br/>class = 9>, fillcolor="#f29cac"] ;
219 -> 223 ;
224 [label=<gini = 0.0<br/>samples = 1<br/>value = [0, 0, 0, 0, 0, 1, 0, 0, 0, 0]<br/>class = 5>, fillcolor="#399de5"] ;
223 -> 224 ;
225 [label=<gini = 0.0<br/>samples = 2<br/>value = [0, 0, 0, 0, 0, 0, 0, 0, 0, 2]<br/>class = 9>, fillcolor="#e53958"] ;
223 -> 225 ;
226 [label=<gini = 0.0<br/>samples = 2<br/>value = [0, 0, 0, 0, 8, 0, 0, 0, 0, 0]<br/>class = 4>, fillcolor="#39e5c5"] ;
218 -> 226 ;
227 [label=<pixel_579 &le; 9.0<br/>gini = 0.232<br/>samples = 78<br/>value = [95, 1, 1, 0, 0, 10, 0, 0, 1, 1]<br/>class = 0>, fillcolor="#e99355"] ;
193 -> 227 ;
228 [label=<pixel_345 &le; 219.5<br/>gini = 0.486<br/>samples = 19<br/>value = [18, 0, 1, 0, 0, 7, 0, 0, 0, 1]<br/>class = 0>, fillcolor="#f1ba92"] ;
227 -> 228 ;
229 [label=<pixel_216 &le; 216.5<br/>gini = 0.556<br/>samples = 10<br/>value = [5, 0, 0, 0, 0, 7, 0, 0, 0, 1]<br/>class = 5>, fillcolor="#cee6f8"] ;
228 -> 229 ;
230 [label=<pixel_357 &le; 129.5<br/>gini = 0.37<br/>samples = 7<br/>value = [1, 0, 0, 0, 0, 7, 0, 0, 0, 1]<br/>class = 5>, fillcolor="#6ab6ec"] ;
229 -> 230 ;
231 [label=<pixel_710 &le; 109.5<br/>gini = 0.219<br/>samples = 6<br/>value = [0, 0, 0, 0, 0, 7, 0, 0, 0, 1]<br/>class = 5>, fillcolor="#55abe9"] ;
230 -> 231 ;
232 [label=<gini = 0.0<br/>samples = 5<br/>value = [0, 0, 0, 0, 0, 7, 0, 0, 0, 0]<br/>class = 5>, fillcolor="#399de5"] ;
231 -> 232 ;
233 [label=<gini = 0.0<br/>samples = 1<br/>value = [0, 0, 0, 0, 0, 0, 0, 0, 0, 1]<br/>class = 9>, fillcolor="#e53958"] ;
231 -> 233 ;
234 [label=<gini = 0.0<br/>samples = 1<br/>value = [1, 0, 0, 0, 0, 0, 0, 0, 0, 0]<br/>class = 0>, fillcolor="#e58139"] ;
230 -> 234 ;
235 [label=<gini = 0.0<br/>samples = 3<br/>value = [4, 0, 0, 0, 0, 0, 0, 0, 0, 0]<br/>class = 0>, fillcolor="#e58139"] ;
229 -> 235 ;
236 [label=<pixel_318 &le; 40.5<br/>gini = 0.133<br/>samples = 9<br/>value = [13, 0, 1, 0, 0, 0, 0, 0, 0, 0]<br/>class = 0>, fillcolor="#e78b48"] ;
228 -> 236 ;
237 [label=<gini = 0.0<br/>samples = 1<br/>value = [0, 0, 1, 0, 0, 0, 0, 0, 0, 0]<br/>class = 2>, fillcolor="#7be539"] ;
236 -> 237 ;
238 [label=<gini = 0.0<br/>samples = 8<br/>value = [13, 0, 0, 0, 0, 0, 0, 0, 0, 0]<br/>class = 0>, fillcolor="#e58139"] ;
236 -> 238 ;
239 [label=<pixel_100 &le; 133.0<br/>gini = 0.117<br/>samples = 59<br/>value = [77, 1, 0, 0, 0, 3, 0, 0, 1, 0]<br/>class = 0>, fillcolor="#e78946"] ;
227 -> 239 ;
240 [label=<pixel_162 &le; 81.0<br/>gini = 0.095<br/>samples = 58<br/>value = [77, 0, 0, 0, 0, 3, 0, 0, 1, 0]<br/>class = 0>, fillcolor="#e68743"] ;
239 -> 240 ;
241 [label=<pixel_460 &le; 95.0<br/>gini = 0.05<br/>samples = 57<br/>value = [77, 0, 0, 0, 0, 1, 0, 0, 1, 0]<br/>class = 0>, fillcolor="#e6843e"] ;
240 -> 241 ;
242 [label=<pixel_404 &le; 59.5<br/>gini = 0.025<br/>samples = 56<br/>value = [77, 0, 0, 0, 0, 1, 0, 0, 0, 0]<br/>class = 0>, fillcolor="#e5833c"] ;
241 -> 242 ;
243 [label=<gini = 0.0<br/>samples = 55<br/>value = [77, 0, 0, 0, 0, 0, 0, 0, 0, 0]<br/>class = 0>, fillcolor="#e58139"] ;
242 -> 243 ;
244 [label=<gini = 0.0<br/>samples = 1<br/>value = [0, 0, 0, 0, 0, 1, 0, 0, 0, 0]<br/>class = 5>, fillcolor="#399de5"] ;
242 -> 244 ;
245 [label=<gini = 0.0<br/>samples = 1<br/>value = [0, 0, 0, 0, 0, 0, 0, 0, 1, 0]<br/>class = 8>, fillcolor="#e539c0"] ;
241 -> 245 ;
246 [label=<gini = 0.0<br/>samples = 1<br/>value = [0, 0, 0, 0, 0, 2, 0, 0, 0, 0]<br/>class = 5>, fillcolor="#399de5"] ;
240 -> 246 ;
247 [label=<gini = 0.0<br/>samples = 1<br/>value = [0, 1, 0, 0, 0, 0, 0, 0, 0, 0]<br/>class = 1>, fillcolor="#e2e539"] ;
239 -> 247 ;
248 [label=<pixel_371 &le; 250.5<br/>gini = 0.443<br/>samples = 12<br/>value = [0, 0, 0, 0, 0, 4, 0, 12, 1, 0]<br/>class = 7>, fillcolor="#c685ef"] ;
192 -> 248 ;
249 [label=<pixel_239 &le; 254.5<br/>gini = 0.153<br/>samples = 9<br/>value = [0, 0, 0, 0, 0, 0, 0, 11, 1, 0]<br/>class = 7>, fillcolor="#ab4be7"] ;
248 -> 249 ;
250 [label=<gini = 0.0<br/>samples = 8<br/>value = [0, 0, 0, 0, 0, 0, 0, 11, 0, 0]<br/>class = 7>, fillcolor="#a339e5"] ;
249 -> 250 ;
251 [label=<gini = 0.0<br/>samples = 1<br/>value = [0, 0, 0, 0, 0, 0, 0, 0, 1, 0]<br/>class = 8>, fillcolor="#e539c0"] ;
249 -> 251 ;
252 [label=<pixel_344 &le; 247.5<br/>gini = 0.32<br/>samples = 3<br/>value = [0, 0, 0, 0, 0, 4, 0, 1, 0, 0]<br/>class = 5>, fillcolor="#6ab6ec"] ;
248 -> 252 ;
253 [label=<gini = 0.0<br/>samples = 2<br/>value = [0, 0, 0, 0, 0, 4, 0, 0, 0, 0]<br/>class = 5>, fillcolor="#399de5"] ;
252 -> 253 ;
254 [label=<gini = 0.0<br/>samples = 1<br/>value = [0, 0, 0, 0, 0, 0, 0, 1, 0, 0]<br/>class = 7>, fillcolor="#a339e5"] ;
252 -> 254 ;
255 [label=<pixel_383 &le; 4.5<br/>gini = 0.847<br/>samples = 129<br/>value = [6, 31, 16, 2, 21, 50, 14, 25, 2, 28]<br/>class = 5>, fillcolor="#e8f4fc"] ;
191 -> 255 ;
256 [label=<pixel_321 &le; 208.0<br/>gini = 0.71<br/>samples = 78<br/>value = [2, 31, 3, 2, 0, 49, 11, 7, 2, 4]<br/>class = 5>, fillcolor="#d2e9f9"] ;
255 -> 256 ;
257 [label=<pixel_488 &le; 4.0<br/>gini = 0.588<br/>samples = 55<br/>value = [2, 2, 2, 0, 0, 48, 11, 7, 2, 4]<br/>class = 5>, fillcolor="#92c9f1"] ;
256 -> 257 ;
258 [label=<pixel_455 &le; 14.0<br/>gini = 0.316<br/>samples = 34<br/>value = [0, 2, 0, 0, 0, 41, 4, 3, 0, 0]<br/>class = 5>, fillcolor="#60b0ea"] ;
257 -> 258 ;
259 [label=<pixel_73 &le; 127.0<br/>gini = 0.234<br/>samples = 31<br/>value = [0, 2, 0, 0, 0, 41, 2, 2, 0, 0]<br/>class = 5>, fillcolor="#53aae8"] ;
258 -> 259 ;
260 [label=<pixel_258 &le; 35.5<br/>gini = 0.166<br/>samples = 30<br/>value = [0, 2, 0, 0, 0, 41, 0, 2, 0, 0]<br/>class = 5>, fillcolor="#4ba6e7"] ;
259 -> 260 ;
261 [label=<pixel_150 &le; 163.5<br/>gini = 0.089<br/>samples = 28<br/>value = [0, 2, 0, 0, 0, 41, 0, 0, 0, 0]<br/>class = 5>, fillcolor="#43a2e6"] ;
260 -> 261 ;
262 [label=<pixel_179 &le; 249.5<br/>gini = 0.046<br/>samples = 27<br/>value = [0, 1, 0, 0, 0, 41, 0, 0, 0, 0]<br/>class = 5>, fillcolor="#3e9fe6"] ;
261 -> 262 ;
263 [label=<gini = 0.0<br/>samples = 24<br/>value = [0, 0, 0, 0, 0, 37, 0, 0, 0, 0]<br/>class = 5>, fillcolor="#399de5"] ;
262 -> 263 ;
264 [label=<pixel_436 &le; 4.5<br/>gini = 0.32<br/>samples = 3<br/>value = [0, 1, 0, 0, 0, 4, 0, 0, 0, 0]<br/>class = 5>, fillcolor="#6ab6ec"] ;
262 -> 264 ;
265 [label=<gini = 0.0<br/>samples = 1<br/>value = [0, 1, 0, 0, 0, 0, 0, 0, 0, 0]<br/>class = 1>, fillcolor="#e2e539"] ;
264 -> 265 ;
266 [label=<gini = 0.0<br/>samples = 2<br/>value = [0, 0, 0, 0, 0, 4, 0, 0, 0, 0]<br/>class = 5>, fillcolor="#399de5"] ;
264 -> 266 ;
267 [label=<gini = 0.0<br/>samples = 1<br/>value = [0, 1, 0, 0, 0, 0, 0, 0, 0, 0]<br/>class = 1>, fillcolor="#e2e539"] ;
261 -> 267 ;
268 [label=<gini = 0.0<br/>samples = 2<br/>value = [0, 0, 0, 0, 0, 0, 0, 2, 0, 0]<br/>class = 7>, fillcolor="#a339e5"] ;
260 -> 268 ;
269 [label=<gini = 0.0<br/>samples = 1<br/>value = [0, 0, 0, 0, 0, 0, 2, 0, 0, 0]<br/>class = 6>, fillcolor="#3c39e5"] ;
259 -> 269 ;
270 [label=<pixel_523 &le; 249.5<br/>gini = 0.444<br/>samples = 3<br/>value = [0, 0, 0, 0, 0, 0, 2, 1, 0, 0]<br/>class = 6>, fillcolor="#9e9cf2"] ;
258 -> 270 ;
271 [label=<gini = 0.0<br/>samples = 2<br/>value = [0, 0, 0, 0, 0, 0, 2, 0, 0, 0]<br/>class = 6>, fillcolor="#3c39e5"] ;
270 -> 271 ;
272 [label=<gini = 0.0<br/>samples = 1<br/>value = [0, 0, 0, 0, 0, 0, 0, 1, 0, 0]<br/>class = 7>, fillcolor="#a339e5"] ;
270 -> 272 ;
273 [label=<pixel_189 &le; 19.5<br/>gini = 0.819<br/>samples = 21<br/>value = [2, 0, 2, 0, 0, 7, 7, 4, 2, 4]<br/>class = 5>, fillcolor="#ffffff"] ;
257 -> 273 ;
274 [label=<pixel_263 &le; 170.5<br/>gini = 0.823<br/>samples = 19<br/>value = [2, 0, 2, 0, 0, 3, 7, 4, 2, 4]<br/>class = 6>, fillcolor="#e2e1fb"] ;
273 -> 274 ;
275 [label=<pixel_483 &le; 59.5<br/>gini = 0.744<br/>samples = 7<br/>value = [0, 0, 2, 0, 0, 3, 0, 3, 0, 3]<br/>class = 5>, fillcolor="#ffffff"] ;
274 -> 275 ;
276 [label=<pixel_465 &le; 3.0<br/>gini = 0.656<br/>samples = 5<br/>value = [0, 0, 2, 0, 0, 3, 0, 3, 0, 0]<br/>class = 5>, fillcolor="#ffffff"] ;
275 -> 276 ;
277 [label=<gini = 0.0<br/>samples = 1<br/>value = [0, 0, 2, 0, 0, 0, 0, 0, 0, 0]<br/>class = 2>, fillcolor="#7be539"] ;
276 -> 277 ;
278 [label=<pixel_261 &le; 79.0<br/>gini = 0.5<br/>samples = 4<br/>value = [0, 0, 0, 0, 0, 3, 0, 3, 0, 0]<br/>class = 5>, fillcolor="#ffffff"] ;
276 -> 278 ;
279 [label=<gini = 0.0<br/>samples = 2<br/>value = [0, 0, 0, 0, 0, 0, 0, 3, 0, 0]<br/>class = 7>, fillcolor="#a339e5"] ;
278 -> 279 ;
280 [label=<gini = 0.0<br/>samples = 2<br/>value = [0, 0, 0, 0, 0, 3, 0, 0, 0, 0]<br/>class = 5>, fillcolor="#399de5"] ;
278 -> 280 ;
281 [label=<gini = 0.0<br/>samples = 2<br/>value = [0, 0, 0, 0, 0, 0, 0, 0, 0, 3]<br/>class = 9>, fillcolor="#e53958"] ;
275 -> 281 ;
282 [label=<pixel_300 &le; 7.0<br/>gini = 0.651<br/>samples = 12<br/>value = [2, 0, 0, 0, 0, 0, 7, 1, 2, 1]<br/>class = 6>, fillcolor="#a6a5f3"] ;
274 -> 282 ;
283 [label=<pixel_127 &le; 42.0<br/>gini = 0.545<br/>samples = 10<br/>value = [0, 0, 0, 0, 0, 0, 7, 1, 2, 1]<br/>class = 6>, fillcolor="#9391f1"] ;
282 -> 283 ;
284 [label=<pixel_207 &le; 33.0<br/>gini = 0.5<br/>samples = 2<br/>value = [0, 0, 0, 0, 0, 0, 0, 1, 1, 0]<br/>class = 7>, fillcolor="#ffffff"] ;
283 -> 284 ;
285 [label=<gini = 0.0<br/>samples = 1<br/>value = [0, 0, 0, 0, 0, 0, 0, 1, 0, 0]<br/>class = 7>, fillcolor="#a339e5"] ;
284 -> 285 ;
286 [label=<gini = 0.0<br/>samples = 1<br/>value = [0, 0, 0, 0, 0, 0, 0, 0, 1, 0]<br/>class = 8>, fillcolor="#e539c0"] ;
284 -> 286 ;
287 [label=<pixel_600 &le; 58.0<br/>gini = 0.37<br/>samples = 8<br/>value = [0, 0, 0, 0, 0, 0, 7, 0, 1, 1]<br/>class = 6>, fillcolor="#6d6aec"] ;
283 -> 287 ;
288 [label=<pixel_545 &le; 199.5<br/>gini = 0.5<br/>samples = 2<br/>value = [0, 0, 0, 0, 0, 0, 0, 0, 1, 1]<br/>class = 8>, fillcolor="#ffffff"] ;
287 -> 288 ;
289 [label=<gini = 0.0<br/>samples = 1<br/>value = [0, 0, 0, 0, 0, 0, 0, 0, 1, 0]<br/>class = 8>, fillcolor="#e539c0"] ;
288 -> 289 ;
290 [label=<gini = 0.0<br/>samples = 1<br/>value = [0, 0, 0, 0, 0, 0, 0, 0, 0, 1]<br/>class = 9>, fillcolor="#e53958"] ;
288 -> 290 ;
291 [label=<gini = 0.0<br/>samples = 6<br/>value = [0, 0, 0, 0, 0, 0, 7, 0, 0, 0]<br/>class = 6>, fillcolor="#3c39e5"] ;
287 -> 291 ;
292 [label=<gini = 0.0<br/>samples = 2<br/>value = [2, 0, 0, 0, 0, 0, 0, 0, 0, 0]<br/>class = 0>, fillcolor="#e58139"] ;
282 -> 292 ;
293 [label=<gini = 0.0<br/>samples = 2<br/>value = [0, 0, 0, 0, 0, 4, 0, 0, 0, 0]<br/>class = 5>, fillcolor="#399de5"] ;
273 -> 293 ;
294 [label=<pixel_576 &le; 160.0<br/>gini = 0.222<br/>samples = 23<br/>value = [0, 29, 1, 2, 0, 1, 0, 0, 0, 0]<br/>class = 1>, fillcolor="#e6e853"] ;
256 -> 294 ;
295 [label=<pixel_175 &le; 84.0<br/>gini = 0.625<br/>samples = 4<br/>value = [0, 0, 1, 2, 0, 1, 0, 0, 0, 0]<br/>class = 3>, fillcolor="#bdf6c9"] ;
294 -> 295 ;
296 [label=<pixel_216 &le; 81.0<br/>gini = 0.5<br/>samples = 2<br/>value = [0, 0, 1, 0, 0, 1, 0, 0, 0, 0]<br/>class = 2>, fillcolor="#ffffff"] ;
295 -> 296 ;
297 [label=<gini = 0.0<br/>samples = 1<br/>value = [0, 0, 1, 0, 0, 0, 0, 0, 0, 0]<br/>class = 2>, fillcolor="#7be539"] ;
296 -> 297 ;
298 [label=<gini = 0.0<br/>samples = 1<br/>value = [0, 0, 0, 0, 0, 1, 0, 0, 0, 0]<br/>class = 5>, fillcolor="#399de5"] ;
296 -> 298 ;
299 [label=<gini = 0.0<br/>samples = 2<br/>value = [0, 0, 0, 2, 0, 0, 0, 0, 0, 0]<br/>class = 3>, fillcolor="#39e55e"] ;
295 -> 299 ;
300 [label=<gini = 0.0<br/>samples = 19<br/>value = [0, 29, 0, 0, 0, 0, 0, 0, 0, 0]<br/>class = 1>, fillcolor="#e2e539"] ;
294 -> 300 ;
301 [label=<pixel_460 &le; 157.5<br/>gini = 0.782<br/>samples = 51<br/>value = [4, 0, 13, 0, 21, 1, 3, 18, 0, 24]<br/>class = 9>, fillcolor="#fef6f7"] ;
255 -> 301 ;
302 [label=<pixel_627 &le; 2.5<br/>gini = 0.777<br/>samples = 44<br/>value = [4, 0, 12, 0, 11, 1, 3, 18, 0, 24]<br/>class = 9>, fillcolor="#fce9ed"] ;
301 -> 302 ;
303 [label=<pixel_542 &le; 203.5<br/>gini = 0.625<br/>samples = 25<br/>value = [0, 0, 2, 0, 11, 0, 3, 4, 0, 24]<br/>class = 9>, fillcolor="#f5b1bd"] ;
302 -> 303 ;
304 [label=<pixel_540 &le; 53.0<br/>gini = 0.5<br/>samples = 20<br/>value = [0, 0, 2, 0, 4, 0, 1, 4, 0, 24]<br/>class = 9>, fillcolor="#ee7f93"] ;
303 -> 304 ;
305 [label=<pixel_688 &le; 166.5<br/>gini = 0.379<br/>samples = 16<br/>value = [0, 0, 2, 0, 0, 0, 1, 4, 0, 24]<br/>class = 9>, fillcolor="#ec6c83"] ;
304 -> 305 ;
306 [label=<pixel_631 &le; 143.5<br/>gini = 0.258<br/>samples = 15<br/>value = [0, 0, 2, 0, 0, 0, 1, 1, 0, 24]<br/>class = 9>, fillcolor="#e95772"] ;
305 -> 306 ;
307 [label=<pixel_519 &le; 251.0<br/>gini = 0.077<br/>samples = 13<br/>value = [0, 0, 0, 0, 0, 0, 1, 0, 0, 24]<br/>class = 9>, fillcolor="#e6415f"] ;
306 -> 307 ;
308 [label=<gini = 0.0<br/>samples = 10<br/>value = [0, 0, 0, 0, 0, 0, 0, 0, 0, 21]<br/>class = 9>, fillcolor="#e53958"] ;
307 -> 308 ;
309 [label=<pixel_315 &le; 73.5<br/>gini = 0.375<br/>samples = 3<br/>value = [0, 0, 0, 0, 0, 0, 1, 0, 0, 3]<br/>class = 9>, fillcolor="#ee7b90"] ;
307 -> 309 ;
310 [label=<gini = 0.0<br/>samples = 1<br/>value = [0, 0, 0, 0, 0, 0, 1, 0, 0, 0]<br/>class = 6>, fillcolor="#3c39e5"] ;
309 -> 310 ;
311 [label=<gini = 0.0<br/>samples = 2<br/>value = [0, 0, 0, 0, 0, 0, 0, 0, 0, 3]<br/>class = 9>, fillcolor="#e53958"] ;
309 -> 311 ;
312 [label=<pixel_291 &le; 126.5<br/>gini = 0.444<br/>samples = 2<br/>value = [0, 0, 2, 0, 0, 0, 0, 1, 0, 0]<br/>class = 2>, fillcolor="#bdf29c"] ;
306 -> 312 ;
313 [label=<gini = 0.0<br/>samples = 1<br/>value = [0, 0, 2, 0, 0, 0, 0, 0, 0, 0]<br/>class = 2>, fillcolor="#7be539"] ;
312 -> 313 ;
314 [label=<gini = 0.0<br/>samples = 1<br/>value = [0, 0, 0, 0, 0, 0, 0, 1, 0, 0]<br/>class = 7>, fillcolor="#a339e5"] ;
312 -> 314 ;
315 [label=<gini = 0.0<br/>samples = 1<br/>value = [0, 0, 0, 0, 0, 0, 0, 3, 0, 0]<br/>class = 7>, fillcolor="#a339e5"] ;
305 -> 315 ;
316 [label=<gini = 0.0<br/>samples = 4<br/>value = [0, 0, 0, 0, 4, 0, 0, 0, 0, 0]<br/>class = 4>, fillcolor="#39e5c5"] ;
304 -> 316 ;
317 [label=<pixel_442 &le; 252.5<br/>gini = 0.346<br/>samples = 5<br/>value = [0, 0, 0, 0, 7, 0, 2, 0, 0, 0]<br/>class = 4>, fillcolor="#72ecd6"] ;
303 -> 317 ;
318 [label=<gini = 0.0<br/>samples = 3<br/>value = [0, 0, 0, 0, 7, 0, 0, 0, 0, 0]<br/>class = 4>, fillcolor="#39e5c5"] ;
317 -> 318 ;
319 [label=<gini = 0.0<br/>samples = 2<br/>value = [0, 0, 0, 0, 0, 0, 2, 0, 0, 0]<br/>class = 6>, fillcolor="#3c39e5"] ;
317 -> 319 ;
320 [label=<pixel_158 &le; 53.0<br/>gini = 0.628<br/>samples = 19<br/>value = [4, 0, 10, 0, 0, 1, 0, 14, 0, 0]<br/>class = 7>, fillcolor="#ecd5fa"] ;
302 -> 320 ;
321 [label=<gini = 0.0<br/>samples = 9<br/>value = [0, 0, 0, 0, 0, 0, 0, 14, 0, 0]<br/>class = 7>, fillcolor="#a339e5"] ;
320 -> 321 ;
322 [label=<pixel_516 &le; 73.0<br/>gini = 0.48<br/>samples = 10<br/>value = [4, 0, 10, 0, 0, 1, 0, 0, 0, 0]<br/>class = 2>, fillcolor="#b7f193"] ;
320 -> 322 ;
323 [label=<pixel_653 &le; 253.5<br/>gini = 0.32<br/>samples = 3<br/>value = [4, 0, 0, 0, 0, 1, 0, 0, 0, 0]<br/>class = 0>, fillcolor="#eca06a"] ;
322 -> 323 ;
324 [label=<gini = 0.0<br/>samples = 2<br/>value = [4, 0, 0, 0, 0, 0, 0, 0, 0, 0]<br/>class = 0>, fillcolor="#e58139"] ;
323 -> 324 ;
325 [label=<gini = 0.0<br/>samples = 1<br/>value = [0, 0, 0, 0, 0, 1, 0, 0, 0, 0]<br/>class = 5>, fillcolor="#399de5"] ;
323 -> 325 ;
326 [label=<gini = 0.0<br/>samples = 7<br/>value = [0, 0, 10, 0, 0, 0, 0, 0, 0, 0]<br/>class = 2>, fillcolor="#7be539"] ;
322 -> 326 ;
327 [label=<pixel_608 &le; 219.0<br/>gini = 0.165<br/>samples = 7<br/>value = [0, 0, 1, 0, 10, 0, 0, 0, 0, 0]<br/>class = 4>, fillcolor="#4de8cb"] ;
301 -> 327 ;
328 [label=<gini = 0.0<br/>samples = 6<br/>value = [0, 0, 0, 0, 10, 0, 0, 0, 0, 0]<br/>class = 4>, fillcolor="#39e5c5"] ;
327 -> 328 ;
329 [label=<gini = 0.0<br/>samples = 1<br/>value = [0, 0, 1, 0, 0, 0, 0, 0, 0, 0]<br/>class = 2>, fillcolor="#7be539"] ;
327 -> 329 ;
330 [label=<pixel_375 &le; 1.0<br/>gini = 0.823<br/>samples = 200<br/>value = [13, 1, 35, 29, 2, 30, 53, 37, 99, 14]<br/>class = 8>, fillcolor="#fadcf4"] ;
190 -> 330 ;
331 [label=<pixel_400 &le; 11.0<br/>gini = 0.838<br/>samples = 123<br/>value = [13, 1, 35, 21, 2, 3, 47, 37, 26, 11]<br/>class = 6>, fillcolor="#f3f3fd"] ;
330 -> 331 ;
332 [label=<pixel_180 &le; 14.0<br/>gini = 0.807<br/>samples = 89<br/>value = [6, 1, 35, 21, 0, 1, 4, 37, 25, 11]<br/>class = 7>, fillcolor="#fdfbff"] ;
331 -> 332 ;
333 [label=<pixel_299 &le; 254.5<br/>gini = 0.585<br/>samples = 36<br/>value = [1, 1, 3, 5, 0, 0, 4, 31, 0, 5]<br/>class = 7>, fillcolor="#ca8df0"] ;
332 -> 333 ;
334 [label=<pixel_457 &le; 126.5<br/>gini = 0.521<br/>samples = 35<br/>value = [1, 1, 3, 1, 0, 0, 4, 31, 0, 5]<br/>class = 7>, fillcolor="#c581ef"] ;
333 -> 334 ;
335 [label=<pixel_451 &le; 79.0<br/>gini = 0.327<br/>samples = 30<br/>value = [1, 1, 2, 1, 0, 0, 0, 31, 0, 2]<br/>class = 7>, fillcolor="#b560ea"] ;
334 -> 335 ;
336 [label=<pixel_460 &le; 245.0<br/>gini = 0.253<br/>samples = 29<br/>value = [1, 1, 2, 1, 0, 0, 0, 31, 0, 0]<br/>class = 7>, fillcolor="#b156e9"] ;
335 -> 336 ;
337 [label=<pixel_370 &le; 198.0<br/>gini = 0.166<br/>samples = 28<br/>value = [1, 1, 0, 1, 0, 0, 0, 31, 0, 0]<br/>class = 7>, fillcolor="#ab4be7"] ;
336 -> 337 ;
338 [label=<pixel_649 &le; 28.5<br/>gini = 0.116<br/>samples = 27<br/>value = [0, 1, 0, 1, 0, 0, 0, 31, 0, 0]<br/>class = 7>, fillcolor="#a945e7"] ;
337 -> 338 ;
339 [label=<gini = 0.0<br/>samples = 25<br/>value = [0, 0, 0, 0, 0, 0, 0, 31, 0, 0]<br/>class = 7>, fillcolor="#a339e5"] ;
338 -> 339 ;
340 [label=<pixel_185 &le; 253.0<br/>gini = 0.5<br/>samples = 2<br/>value = [0, 1, 0, 1, 0, 0, 0, 0, 0, 0]<br/>class = 1>, fillcolor="#ffffff"] ;
338 -> 340 ;
341 [label=<gini = 0.0<br/>samples = 1<br/>value = [0, 1, 0, 0, 0, 0, 0, 0, 0, 0]<br/>class = 1>, fillcolor="#e2e539"] ;
340 -> 341 ;
342 [label=<gini = 0.0<br/>samples = 1<br/>value = [0, 0, 0, 1, 0, 0, 0, 0, 0, 0]<br/>class = 3>, fillcolor="#39e55e"] ;
340 -> 342 ;
343 [label=<gini = 0.0<br/>samples = 1<br/>value = [1, 0, 0, 0, 0, 0, 0, 0, 0, 0]<br/>class = 0>, fillcolor="#e58139"] ;
337 -> 343 ;
344 [label=<gini = 0.0<br/>samples = 1<br/>value = [0, 0, 2, 0, 0, 0, 0, 0, 0, 0]<br/>class = 2>, fillcolor="#7be539"] ;
336 -> 344 ;
345 [label=<gini = 0.0<br/>samples = 1<br/>value = [0, 0, 0, 0, 0, 0, 0, 0, 0, 2]<br/>class = 9>, fillcolor="#e53958"] ;
335 -> 345 ;
346 [label=<pixel_236 &le; 47.5<br/>gini = 0.594<br/>samples = 5<br/>value = [0, 0, 1, 0, 0, 0, 4, 0, 0, 3]<br/>class = 6>, fillcolor="#d8d7fa"] ;
334 -> 346 ;
347 [label=<gini = 0.0<br/>samples = 2<br/>value = [0, 0, 0, 0, 0, 0, 4, 0, 0, 0]<br/>class = 6>, fillcolor="#3c39e5"] ;
346 -> 347 ;
348 [label=<pixel_354 &le; 84.0<br/>gini = 0.375<br/>samples = 3<br/>value = [0, 0, 1, 0, 0, 0, 0, 0, 0, 3]<br/>class = 9>, fillcolor="#ee7b90"] ;
346 -> 348 ;
349 [label=<gini = 0.0<br/>samples = 1<br/>value = [0, 0, 1, 0, 0, 0, 0, 0, 0, 0]<br/>class = 2>, fillcolor="#7be539"] ;
348 -> 349 ;
350 [label=<gini = 0.0<br/>samples = 2<br/>value = [0, 0, 0, 0, 0, 0, 0, 0, 0, 3]<br/>class = 9>, fillcolor="#e53958"] ;
348 -> 350 ;
351 [label=<gini = 0.0<br/>samples = 1<br/>value = [0, 0, 0, 4, 0, 0, 0, 0, 0, 0]<br/>class = 3>, fillcolor="#39e55e"] ;
333 -> 351 ;
352 [label=<pixel_606 &le; 2.5<br/>gini = 0.758<br/>samples = 53<br/>value = [5, 0, 32, 16, 0, 1, 0, 6, 25, 6]<br/>class = 2>, fillcolor="#f1fcea"] ;
332 -> 352 ;
353 [label=<pixel_268 &le; 164.5<br/>gini = 0.654<br/>samples = 26<br/>value = [2, 0, 2, 7, 0, 0, 0, 6, 22, 2]<br/>class = 8>, fillcolor="#f4a8e3"] ;
352 -> 353 ;
354 [label=<pixel_516 &le; 32.5<br/>gini = 0.528<br/>samples = 21<br/>value = [0, 0, 0, 7, 0, 0, 0, 3, 22, 2]<br/>class = 8>, fillcolor="#f191dc"] ;
353 -> 354 ;
355 [label=<pixel_383 &le; 127.0<br/>gini = 0.346<br/>samples = 7<br/>value = [0, 0, 0, 7, 0, 0, 0, 0, 0, 2]<br/>class = 3>, fillcolor="#72ec8c"] ;
354 -> 355 ;
356 [label=<gini = 0.0<br/>samples = 6<br/>value = [0, 0, 0, 7, 0, 0, 0, 0, 0, 0]<br/>class = 3>, fillcolor="#39e55e"] ;
355 -> 356 ;
357 [label=<gini = 0.0<br/>samples = 1<br/>value = [0, 0, 0, 0, 0, 0, 0, 0, 0, 2]<br/>class = 9>, fillcolor="#e53958"] ;
355 -> 357 ;
358 [label=<pixel_686 &le; 6.0<br/>gini = 0.211<br/>samples = 14<br/>value = [0, 0, 0, 0, 0, 0, 0, 3, 22, 0]<br/>class = 8>, fillcolor="#e954c9"] ;
354 -> 358 ;
359 [label=<pixel_350 &le; 110.5<br/>gini = 0.48<br/>samples = 2<br/>value = [0, 0, 0, 0, 0, 0, 0, 3, 2, 0]<br/>class = 7>, fillcolor="#e0bdf6"] ;
358 -> 359 ;
360 [label=<gini = 0.0<br/>samples = 1<br/>value = [0, 0, 0, 0, 0, 0, 0, 3, 0, 0]<br/>class = 7>, fillcolor="#a339e5"] ;
359 -> 360 ;
361 [label=<gini = 0.0<br/>samples = 1<br/>value = [0, 0, 0, 0, 0, 0, 0, 0, 2, 0]<br/>class = 8>, fillcolor="#e539c0"] ;
359 -> 361 ;
362 [label=<gini = 0.0<br/>samples = 12<br/>value = [0, 0, 0, 0, 0, 0, 0, 0, 20, 0]<br/>class = 8>, fillcolor="#e539c0"] ;
358 -> 362 ;
363 [label=<pixel_518 &le; 10.5<br/>gini = 0.653<br/>samples = 5<br/>value = [2, 0, 2, 0, 0, 0, 0, 3, 0, 0]<br/>class = 7>, fillcolor="#edd7fa"] ;
353 -> 363 ;
364 [label=<pixel_550 &le; 127.0<br/>gini = 0.5<br/>samples = 2<br/>value = [2, 0, 2, 0, 0, 0, 0, 0, 0, 0]<br/>class = 0>, fillcolor="#ffffff"] ;
363 -> 364 ;
365 [label=<gini = 0.0<br/>samples = 1<br/>value = [2, 0, 0, 0, 0, 0, 0, 0, 0, 0]<br/>class = 0>, fillcolor="#e58139"] ;
364 -> 365 ;
366 [label=<gini = 0.0<br/>samples = 1<br/>value = [0, 0, 2, 0, 0, 0, 0, 0, 0, 0]<br/>class = 2>, fillcolor="#7be539"] ;
364 -> 366 ;
367 [label=<gini = 0.0<br/>samples = 3<br/>value = [0, 0, 0, 0, 0, 0, 0, 3, 0, 0]<br/>class = 7>, fillcolor="#a339e5"] ;
363 -> 367 ;
368 [label=<pixel_326 &le; 206.5<br/>gini = 0.594<br/>samples = 27<br/>value = [3, 0, 30, 9, 0, 1, 0, 0, 3, 4]<br/>class = 2>, fillcolor="#bbf29a"] ;
352 -> 368 ;
369 [label=<pixel_522 &le; 21.5<br/>gini = 0.302<br/>samples = 18<br/>value = [0, 0, 29, 3, 0, 1, 0, 0, 2, 0]<br/>class = 2>, fillcolor="#94ea5e"] ;
368 -> 369 ;
370 [label=<pixel_489 &le; 25.5<br/>gini = 0.219<br/>samples = 16<br/>value = [0, 0, 29, 3, 0, 1, 0, 0, 0, 0]<br/>class = 2>, fillcolor="#8de853"] ;
369 -> 370 ;
371 [label=<pixel_205 &le; 133.0<br/>gini = 0.375<br/>samples = 2<br/>value = [0, 0, 0, 3, 0, 1, 0, 0, 0, 0]<br/>class = 3>, fillcolor="#7bee94"] ;
370 -> 371 ;
372 [label=<gini = 0.0<br/>samples = 1<br/>value = [0, 0, 0, 0, 0, 1, 0, 0, 0, 0]<br/>class = 5>, fillcolor="#399de5"] ;
371 -> 372 ;
373 [label=<gini = 0.0<br/>samples = 1<br/>value = [0, 0, 0, 3, 0, 0, 0, 0, 0, 0]<br/>class = 3>, fillcolor="#39e55e"] ;
371 -> 373 ;
374 [label=<gini = 0.0<br/>samples = 14<br/>value = [0, 0, 29, 0, 0, 0, 0, 0, 0, 0]<br/>class = 2>, fillcolor="#7be539"] ;
370 -> 374 ;
375 [label=<gini = 0.0<br/>samples = 2<br/>value = [0, 0, 0, 0, 0, 0, 0, 0, 2, 0]<br/>class = 8>, fillcolor="#e539c0"] ;
369 -> 375 ;
376 [label=<pixel_327 &le; 175.5<br/>gini = 0.72<br/>samples = 9<br/>value = [3, 0, 1, 6, 0, 0, 0, 0, 1, 4]<br/>class = 3>, fillcolor="#dbfae2"] ;
368 -> 376 ;
377 [label=<pixel_600 &le; 194.0<br/>gini = 0.406<br/>samples = 6<br/>value = [0, 0, 1, 6, 0, 0, 0, 0, 1, 0]<br/>class = 3>, fillcolor="#72ec8c"] ;
376 -> 377 ;
378 [label=<gini = 0.0<br/>samples = 4<br/>value = [0, 0, 0, 6, 0, 0, 0, 0, 0, 0]<br/>class = 3>, fillcolor="#39e55e"] ;
377 -> 378 ;
379 [label=<pixel_495 &le; 131.5<br/>gini = 0.5<br/>samples = 2<br/>value = [0, 0, 1, 0, 0, 0, 0, 0, 1, 0]<br/>class = 2>, fillcolor="#ffffff"] ;
377 -> 379 ;
380 [label=<gini = 0.0<br/>samples = 1<br/>value = [0, 0, 0, 0, 0, 0, 0, 0, 1, 0]<br/>class = 8>, fillcolor="#e539c0"] ;
379 -> 380 ;
381 [label=<gini = 0.0<br/>samples = 1<br/>value = [0, 0, 1, 0, 0, 0, 0, 0, 0, 0]<br/>class = 2>, fillcolor="#7be539"] ;
379 -> 381 ;
382 [label=<pixel_489 &le; 126.5<br/>gini = 0.49<br/>samples = 3<br/>value = [3, 0, 0, 0, 0, 0, 0, 0, 0, 4]<br/>class = 9>, fillcolor="#f8ced5"] ;
376 -> 382 ;
383 [label=<gini = 0.0<br/>samples = 1<br/>value = [3, 0, 0, 0, 0, 0, 0, 0, 0, 0]<br/>class = 0>, fillcolor="#e58139"] ;
382 -> 383 ;
384 [label=<gini = 0.0<br/>samples = 2<br/>value = [0, 0, 0, 0, 0, 0, 0, 0, 0, 4]<br/>class = 9>, fillcolor="#e53958"] ;
382 -> 384 ;
385 [label=<pixel_576 &le; 9.5<br/>gini = 0.37<br/>samples = 34<br/>value = [7, 0, 0, 0, 2, 2, 43, 0, 1, 0]<br/>class = 6>, fillcolor="#6d6bec"] ;
331 -> 385 ;
386 [label=<pixel_152 &le; 179.5<br/>gini = 0.74<br/>samples = 8<br/>value = [4, 0, 0, 0, 2, 2, 1, 0, 1, 0]<br/>class = 0>, fillcolor="#f8e0ce"] ;
385 -> 386 ;
387 [label=<pixel_546 &le; 4.5<br/>gini = 0.722<br/>samples = 4<br/>value = [0, 0, 0, 0, 2, 2, 1, 0, 1, 0]<br/>class = 4>, fillcolor="#ffffff"] ;
386 -> 387 ;
388 [label=<gini = 0.0<br/>samples = 1<br/>value = [0, 0, 0, 0, 0, 2, 0, 0, 0, 0]<br/>class = 5>, fillcolor="#399de5"] ;
387 -> 388 ;
389 [label=<pixel_515 &le; 75.5<br/>gini = 0.625<br/>samples = 3<br/>value = [0, 0, 0, 0, 2, 0, 1, 0, 1, 0]<br/>class = 4>, fillcolor="#bdf6ec"] ;
387 -> 389 ;
390 [label=<gini = 0.0<br/>samples = 1<br/>value = [0, 0, 0, 0, 2, 0, 0, 0, 0, 0]<br/>class = 4>, fillcolor="#39e5c5"] ;
389 -> 390 ;
391 [label=<pixel_528 &le; 78.5<br/>gini = 0.5<br/>samples = 2<br/>value = [0, 0, 0, 0, 0, 0, 1, 0, 1, 0]<br/>class = 6>, fillcolor="#ffffff"] ;
389 -> 391 ;
392 [label=<gini = 0.0<br/>samples = 1<br/>value = [0, 0, 0, 0, 0, 0, 0, 0, 1, 0]<br/>class = 8>, fillcolor="#e539c0"] ;
391 -> 392 ;
393 [label=<gini = 0.0<br/>samples = 1<br/>value = [0, 0, 0, 0, 0, 0, 1, 0, 0, 0]<br/>class = 6>, fillcolor="#3c39e5"] ;
391 -> 393 ;
394 [label=<gini = 0.0<br/>samples = 4<br/>value = [4, 0, 0, 0, 0, 0, 0, 0, 0, 0]<br/>class = 0>, fillcolor="#e58139"] ;
386 -> 394 ;
395 [label=<pixel_183 &le; 118.0<br/>gini = 0.124<br/>samples = 26<br/>value = [3, 0, 0, 0, 0, 0, 42, 0, 0, 0]<br/>class = 6>, fillcolor="#4a47e7"] ;
385 -> 395 ;
396 [label=<gini = 0.0<br/>samples = 23<br/>value = [0, 0, 0, 0, 0, 0, 42, 0, 0, 0]<br/>class = 6>, fillcolor="#3c39e5"] ;
395 -> 396 ;
397 [label=<gini = 0.0<br/>samples = 3<br/>value = [3, 0, 0, 0, 0, 0, 0, 0, 0, 0]<br/>class = 0>, fillcolor="#e58139"] ;
395 -> 397 ;
398 [label=<pixel_498 &le; 21.0<br/>gini = 0.549<br/>samples = 77<br/>value = [0, 0, 0, 8, 0, 27, 6, 0, 73, 3]<br/>class = 8>, fillcolor="#f29adf"] ;
330 -> 398 ;
399 [label=<pixel_461 &le; 1.5<br/>gini = 0.449<br/>samples = 65<br/>value = [0, 0, 0, 8, 0, 11, 5, 0, 72, 3]<br/>class = 8>, fillcolor="#ed76d3"] ;
398 -> 399 ;
400 [label=<pixel_242 &le; 24.0<br/>gini = 0.631<br/>samples = 18<br/>value = [0, 0, 0, 8, 0, 11, 1, 0, 0, 3]<br/>class = 5>, fillcolor="#d7ebfa"] ;
399 -> 400 ;
401 [label=<pixel_430 &le; 73.5<br/>gini = 0.165<br/>samples = 9<br/>value = [0, 0, 0, 0, 0, 10, 1, 0, 0, 0]<br/>class = 5>, fillcolor="#4da7e8"] ;
400 -> 401 ;
402 [label=<gini = 0.0<br/>samples = 8<br/>value = [0, 0, 0, 0, 0, 10, 0, 0, 0, 0]<br/>class = 5>, fillcolor="#399de5"] ;
401 -> 402 ;
403 [label=<gini = 0.0<br/>samples = 1<br/>value = [0, 0, 0, 0, 0, 0, 1, 0, 0, 0]<br/>class = 6>, fillcolor="#3c39e5"] ;
401 -> 403 ;
404 [label=<pixel_290 &le; 19.0<br/>gini = 0.486<br/>samples = 9<br/>value = [0, 0, 0, 8, 0, 1, 0, 0, 0, 3]<br/>class = 3>, fillcolor="#91f1a6"] ;
400 -> 404 ;
405 [label=<gini = 0.0<br/>samples = 5<br/>value = [0, 0, 0, 8, 0, 0, 0, 0, 0, 0]<br/>class = 3>, fillcolor="#39e55e"] ;
404 -> 405 ;
406 [label=<pixel_412 &le; 172.5<br/>gini = 0.375<br/>samples = 4<br/>value = [0, 0, 0, 0, 0, 1, 0, 0, 0, 3]<br/>class = 9>, fillcolor="#ee7b90"] ;
404 -> 406 ;
407 [label=<gini = 0.0<br/>samples = 3<br/>value = [0, 0, 0, 0, 0, 0, 0, 0, 0, 3]<br/>class = 9>, fillcolor="#e53958"] ;
406 -> 407 ;
408 [label=<gini = 0.0<br/>samples = 1<br/>value = [0, 0, 0, 0, 0, 1, 0, 0, 0, 0]<br/>class = 5>, fillcolor="#399de5"] ;
406 -> 408 ;
409 [label=<pixel_97 &le; 5.0<br/>gini = 0.1<br/>samples = 47<br/>value = [0, 0, 0, 0, 0, 0, 4, 0, 72, 0]<br/>class = 8>, fillcolor="#e644c4"] ;
399 -> 409 ;
410 [label=<gini = 0.0<br/>samples = 45<br/>value = [0, 0, 0, 0, 0, 0, 0, 0, 72, 0]<br/>class = 8>, fillcolor="#e539c0"] ;
409 -> 410 ;
411 [label=<gini = 0.0<br/>samples = 2<br/>value = [0, 0, 0, 0, 0, 0, 4, 0, 0, 0]<br/>class = 6>, fillcolor="#3c39e5"] ;
409 -> 411 ;
412 [label=<pixel_271 &le; 123.5<br/>gini = 0.204<br/>samples = 12<br/>value = [0, 0, 0, 0, 0, 16, 1, 0, 1, 0]<br/>class = 5>, fillcolor="#50a9e8"] ;
398 -> 412 ;
413 [label=<pixel_181 &le; 120.0<br/>gini = 0.111<br/>samples = 11<br/>value = [0, 0, 0, 0, 0, 16, 1, 0, 0, 0]<br/>class = 5>, fillcolor="#45a3e7"] ;
412 -> 413 ;
414 [label=<gini = 0.0<br/>samples = 1<br/>value = [0, 0, 0, 0, 0, 0, 1, 0, 0, 0]<br/>class = 6>, fillcolor="#3c39e5"] ;
413 -> 414 ;
415 [label=<gini = 0.0<br/>samples = 10<br/>value = [0, 0, 0, 0, 0, 16, 0, 0, 0, 0]<br/>class = 5>, fillcolor="#399de5"] ;
413 -> 415 ;
416 [label=<gini = 0.0<br/>samples = 1<br/>value = [0, 0, 0, 0, 0, 0, 0, 0, 1, 0]<br/>class = 8>, fillcolor="#e539c0"] ;
412 -> 416 ;
417 [label=<pixel_658 &le; 0.5<br/>gini = 0.828<br/>samples = 1090<br/>value = [119, 28, 112, 177, 112, 465, 392, 14, 290, 39]<br/>class = 5>, fillcolor="#f4fafe"] ;
3 -> 417 ;
418 [label=<pixel_246 &le; 0.5<br/>gini = 0.724<br/>samples = 482<br/>value = [12, 20, 92, 42, 102, 88, 369, 7, 21, 22]<br/>class = 6>, fillcolor="#b2b0f5"] ;
417 -> 418 ;
419 [label=<pixel_271 &le; 5.5<br/>gini = 0.668<br/>samples = 419<br/>value = [9, 20, 81, 31, 78, 43, 367, 7, 19, 20]<br/>class = 6>, fillcolor="#a1a0f2"] ;
418 -> 419 ;
420 [label=<pixel_515 &le; 20.5<br/>gini = 0.498<br/>samples = 318<br/>value = [2, 12, 55, 11, 25, 35, 356, 3, 6, 8]<br/>class = 6>, fillcolor="#7f7dee"] ;
419 -> 420 ;
421 [label=<pixel_456 &le; 82.5<br/>gini = 0.834<br/>samples = 68<br/>value = [0, 10, 14, 10, 21, 27, 7, 3, 1, 8]<br/>class = 5>, fillcolor="#f0f8fd"] ;
420 -> 421 ;
422 [label=<pixel_269 &le; 111.5<br/>gini = 0.798<br/>samples = 48<br/>value = [0, 10, 5, 10, 6, 27, 6, 2, 0, 7]<br/>class = 5>, fillcolor="#cae5f8"] ;
421 -> 422 ;
423 [label=<pixel_377 &le; 219.0<br/>gini = 0.674<br/>samples = 34<br/>value = [0, 10, 5, 1, 3, 26, 6, 0, 0, 0]<br/>class = 5>, fillcolor="#b2d9f5"] ;
422 -> 423 ;
424 [label=<pixel_488 &le; 9.5<br/>gini = 0.53<br/>samples = 24<br/>value = [0, 2, 4, 1, 3, 26, 3, 0, 0, 0]<br/>class = 5>, fillcolor="#83c1ef"] ;
423 -> 424 ;
425 [label=<pixel_468 &le; 86.5<br/>gini = 0.218<br/>samples = 15<br/>value = [0, 0, 2, 0, 0, 22, 1, 0, 0, 0]<br/>class = 5>, fillcolor="#53aae8"] ;
424 -> 425 ;
426 [label=<pixel_294 &le; 117.5<br/>gini = 0.083<br/>samples = 14<br/>value = [0, 0, 0, 0, 0, 22, 1, 0, 0, 0]<br/>class = 5>, fillcolor="#42a1e6"] ;
425 -> 426 ;
427 [label=<gini = 0.0<br/>samples = 11<br/>value = [0, 0, 0, 0, 0, 18, 0, 0, 0, 0]<br/>class = 5>, fillcolor="#399de5"] ;
426 -> 427 ;
428 [label=<pixel_375 &le; 234.5<br/>gini = 0.32<br/>samples = 3<br/>value = [0, 0, 0, 0, 0, 4, 1, 0, 0, 0]<br/>class = 5>, fillcolor="#6ab6ec"] ;
426 -> 428 ;
429 [label=<gini = 0.0<br/>samples = 2<br/>value = [0, 0, 0, 0, 0, 4, 0, 0, 0, 0]<br/>class = 5>, fillcolor="#399de5"] ;
428 -> 429 ;
430 [label=<gini = 0.0<br/>samples = 1<br/>value = [0, 0, 0, 0, 0, 0, 1, 0, 0, 0]<br/>class = 6>, fillcolor="#3c39e5"] ;
428 -> 430 ;
431 [label=<gini = 0.0<br/>samples = 1<br/>value = [0, 0, 2, 0, 0, 0, 0, 0, 0, 0]<br/>class = 2>, fillcolor="#7be539"] ;
425 -> 431 ;
432 [label=<pixel_657 &le; 6.5<br/>gini = 0.806<br/>samples = 9<br/>value = [0, 2, 2, 1, 3, 4, 2, 0, 0, 0]<br/>class = 5>, fillcolor="#edf6fd"] ;
424 -> 432 ;
433 [label=<pixel_123 &le; 96.0<br/>gini = 0.78<br/>samples = 7<br/>value = [0, 2, 2, 1, 3, 0, 2, 0, 0, 0]<br/>class = 4>, fillcolor="#e6fcf8"] ;
432 -> 433 ;
434 [label=<pixel_540 &le; 12.5<br/>gini = 0.735<br/>samples = 5<br/>value = [0, 2, 2, 1, 0, 0, 2, 0, 0, 0]<br/>class = 1>, fillcolor="#ffffff"] ;
433 -> 434 ;
435 [label=<pixel_159 &le; 32.0<br/>gini = 0.64<br/>samples = 3<br/>value = [0, 2, 0, 1, 0, 0, 2, 0, 0, 0]<br/>class = 1>, fillcolor="#ffffff"] ;
434 -> 435 ;
436 [label=<pixel_631 &le; 58.0<br/>gini = 0.444<br/>samples = 2<br/>value = [0, 2, 0, 1, 0, 0, 0, 0, 0, 0]<br/>class = 1>, fillcolor="#f0f29c"] ;
435 -> 436 ;
437 [label=<gini = 0.0<br/>samples = 1<br/>value = [0, 0, 0, 1, 0, 0, 0, 0, 0, 0]<br/>class = 3>, fillcolor="#39e55e"] ;
436 -> 437 ;
438 [label=<gini = 0.0<br/>samples = 1<br/>value = [0, 2, 0, 0, 0, 0, 0, 0, 0, 0]<br/>class = 1>, fillcolor="#e2e539"] ;
436 -> 438 ;
439 [label=<gini = 0.0<br/>samples = 1<br/>value = [0, 0, 0, 0, 0, 0, 2, 0, 0, 0]<br/>class = 6>, fillcolor="#3c39e5"] ;
435 -> 439 ;
440 [label=<gini = 0.0<br/>samples = 2<br/>value = [0, 0, 2, 0, 0, 0, 0, 0, 0, 0]<br/>class = 2>, fillcolor="#7be539"] ;
434 -> 440 ;
441 [label=<gini = 0.0<br/>samples = 2<br/>value = [0, 0, 0, 0, 3, 0, 0, 0, 0, 0]<br/>class = 4>, fillcolor="#39e5c5"] ;
433 -> 441 ;
442 [label=<gini = 0.0<br/>samples = 2<br/>value = [0, 0, 0, 0, 0, 4, 0, 0, 0, 0]<br/>class = 5>, fillcolor="#399de5"] ;
432 -> 442 ;
443 [label=<pixel_575 &le; 186.5<br/>gini = 0.486<br/>samples = 10<br/>value = [0, 8, 1, 0, 0, 0, 3, 0, 0, 0]<br/>class = 1>, fillcolor="#eff191"] ;
423 -> 443 ;
444 [label=<pixel_638 &le; 127.0<br/>gini = 0.375<br/>samples = 3<br/>value = [0, 0, 1, 0, 0, 0, 3, 0, 0, 0]<br/>class = 6>, fillcolor="#7d7bee"] ;
443 -> 444 ;
445 [label=<gini = 0.0<br/>samples = 2<br/>value = [0, 0, 0, 0, 0, 0, 3, 0, 0, 0]<br/>class = 6>, fillcolor="#3c39e5"] ;
444 -> 445 ;
446 [label=<gini = 0.0<br/>samples = 1<br/>value = [0, 0, 1, 0, 0, 0, 0, 0, 0, 0]<br/>class = 2>, fillcolor="#7be539"] ;
444 -> 446 ;
447 [label=<gini = 0.0<br/>samples = 7<br/>value = [0, 8, 0, 0, 0, 0, 0, 0, 0, 0]<br/>class = 1>, fillcolor="#e2e539"] ;
443 -> 447 ;
448 [label=<pixel_690 &le; 87.0<br/>gini = 0.702<br/>samples = 14<br/>value = [0, 0, 0, 9, 3, 1, 0, 2, 0, 7]<br/>class = 3>, fillcolor="#e5fcea"] ;
422 -> 448 ;
449 [label=<pixel_488 &le; 71.5<br/>gini = 0.625<br/>samples = 11<br/>value = [0, 0, 0, 9, 3, 1, 0, 2, 0, 1]<br/>class = 3>, fillcolor="#a4f3b5"] ;
448 -> 449 ;
450 [label=<pixel_599 &le; 27.5<br/>gini = 0.531<br/>samples = 9<br/>value = [0, 0, 0, 9, 3, 1, 0, 0, 0, 1]<br/>class = 3>, fillcolor="#93f1a7"] ;
449 -> 450 ;
451 [label=<pixel_212 &le; 3.5<br/>gini = 0.667<br/>samples = 5<br/>value = [0, 0, 0, 1, 3, 1, 0, 0, 0, 1]<br/>class = 4>, fillcolor="#b0f5e8"] ;
450 -> 451 ;
452 [label=<gini = 0.0<br/>samples = 2<br/>value = [0, 0, 0, 0, 3, 0, 0, 0, 0, 0]<br/>class = 4>, fillcolor="#39e5c5"] ;
451 -> 452 ;
453 [label=<pixel_659 &le; 53.5<br/>gini = 0.667<br/>samples = 3<br/>value = [0, 0, 0, 1, 0, 1, 0, 0, 0, 1]<br/>class = 3>, fillcolor="#ffffff"] ;
451 -> 453 ;
454 [label=<pixel_519 &le; 22.5<br/>gini = 0.5<br/>samples = 2<br/>value = [0, 0, 0, 1, 0, 0, 0, 0, 0, 1]<br/>class = 3>, fillcolor="#ffffff"] ;
453 -> 454 ;
455 [label=<gini = 0.0<br/>samples = 1<br/>value = [0, 0, 0, 1, 0, 0, 0, 0, 0, 0]<br/>class = 3>, fillcolor="#39e55e"] ;
454 -> 455 ;
456 [label=<gini = 0.0<br/>samples = 1<br/>value = [0, 0, 0, 0, 0, 0, 0, 0, 0, 1]<br/>class = 9>, fillcolor="#e53958"] ;
454 -> 456 ;
457 [label=<gini = 0.0<br/>samples = 1<br/>value = [0, 0, 0, 0, 0, 1, 0, 0, 0, 0]<br/>class = 5>, fillcolor="#399de5"] ;
453 -> 457 ;
458 [label=<gini = 0.0<br/>samples = 4<br/>value = [0, 0, 0, 8, 0, 0, 0, 0, 0, 0]<br/>class = 3>, fillcolor="#39e55e"] ;
450 -> 458 ;
459 [label=<gini = 0.0<br/>samples = 2<br/>value = [0, 0, 0, 0, 0, 0, 0, 2, 0, 0]<br/>class = 7>, fillcolor="#a339e5"] ;
449 -> 459 ;
460 [label=<gini = 0.0<br/>samples = 3<br/>value = [0, 0, 0, 0, 0, 0, 0, 0, 0, 6]<br/>class = 9>, fillcolor="#e53958"] ;
448 -> 460 ;
461 [label=<pixel_399 &le; 128.5<br/>gini = 0.605<br/>samples = 20<br/>value = [0, 0, 9, 0, 15, 0, 1, 1, 1, 1]<br/>class = 4>, fillcolor="#c0f7ed"] ;
421 -> 461 ;
462 [label=<pixel_158 &le; 17.5<br/>gini = 0.58<br/>samples = 12<br/>value = [0, 0, 8, 0, 2, 0, 0, 1, 1, 1]<br/>class = 2>, fillcolor="#b7f193"] ;
461 -> 462 ;
463 [label=<pixel_344 &le; 153.0<br/>gini = 0.34<br/>samples = 9<br/>value = [0, 0, 8, 0, 0, 0, 0, 1, 0, 1]<br/>class = 2>, fillcolor="#98eb65"] ;
462 -> 463 ;
464 [label=<gini = 0.0<br/>samples = 7<br/>value = [0, 0, 8, 0, 0, 0, 0, 0, 0, 0]<br/>class = 2>, fillcolor="#7be539"] ;
463 -> 464 ;
465 [label=<pixel_638 &le; 7.5<br/>gini = 0.5<br/>samples = 2<br/>value = [0, 0, 0, 0, 0, 0, 0, 1, 0, 1]<br/>class = 7>, fillcolor="#ffffff"] ;
463 -> 465 ;
466 [label=<gini = 0.0<br/>samples = 1<br/>value = [0, 0, 0, 0, 0, 0, 0, 1, 0, 0]<br/>class = 7>, fillcolor="#a339e5"] ;
465 -> 466 ;
467 [label=<gini = 0.0<br/>samples = 1<br/>value = [0, 0, 0, 0, 0, 0, 0, 0, 0, 1]<br/>class = 9>, fillcolor="#e53958"] ;
465 -> 467 ;
468 [label=<pixel_596 &le; 45.0<br/>gini = 0.444<br/>samples = 3<br/>value = [0, 0, 0, 0, 2, 0, 0, 0, 1, 0]<br/>class = 4>, fillcolor="#9cf2e2"] ;
462 -> 468 ;
469 [label=<gini = 0.0<br/>samples = 2<br/>value = [0, 0, 0, 0, 2, 0, 0, 0, 0, 0]<br/>class = 4>, fillcolor="#39e5c5"] ;
468 -> 469 ;
470 [label=<gini = 0.0<br/>samples = 1<br/>value = [0, 0, 0, 0, 0, 0, 0, 0, 1, 0]<br/>class = 8>, fillcolor="#e539c0"] ;
468 -> 470 ;
471 [label=<pixel_499 &le; 7.5<br/>gini = 0.24<br/>samples = 8<br/>value = [0, 0, 1, 0, 13, 0, 1, 0, 0, 0]<br/>class = 4>, fillcolor="#55e9cd"] ;
461 -> 471 ;
472 [label=<gini = 0.0<br/>samples = 6<br/>value = [0, 0, 0, 0, 13, 0, 0, 0, 0, 0]<br/>class = 4>, fillcolor="#39e5c5"] ;
471 -> 472 ;
473 [label=<pixel_95 &le; 92.5<br/>gini = 0.5<br/>samples = 2<br/>value = [0, 0, 1, 0, 0, 0, 1, 0, 0, 0]<br/>class = 2>, fillcolor="#ffffff"] ;
471 -> 473 ;
474 [label=<gini = 0.0<br/>samples = 1<br/>value = [0, 0, 1, 0, 0, 0, 0, 0, 0, 0]<br/>class = 2>, fillcolor="#7be539"] ;
473 -> 474 ;
475 [label=<gini = 0.0<br/>samples = 1<br/>value = [0, 0, 0, 0, 0, 0, 1, 0, 0, 0]<br/>class = 6>, fillcolor="#3c39e5"] ;
473 -> 475 ;
476 [label=<pixel_529 &le; 2.5<br/>gini = 0.272<br/>samples = 250<br/>value = [2, 2, 41, 1, 4, 8, 349, 0, 5, 0]<br/>class = 6>, fillcolor="#5d5be9"] ;
420 -> 476 ;
477 [label=<pixel_213 &le; 127.0<br/>gini = 0.223<br/>samples = 239<br/>value = [2, 2, 26, 1, 4, 8, 347, 0, 5, 0]<br/>class = 6>, fillcolor="#5553e8"] ;
476 -> 477 ;
478 [label=<pixel_148 &le; 5.5<br/>gini = 0.127<br/>samples = 220<br/>value = [2, 2, 14, 0, 0, 5, 335, 0, 1, 0]<br/>class = 6>, fillcolor="#4a47e7"] ;
477 -> 478 ;
479 [label=<pixel_313 &le; 126.5<br/>gini = 0.077<br/>samples = 203<br/>value = [2, 2, 3, 0, 0, 5, 318, 0, 1, 0]<br/>class = 6>, fillcolor="#4441e6"] ;
478 -> 479 ;
480 [label=<pixel_160 &le; 201.0<br/>gini = 0.071<br/>samples = 202<br/>value = [2, 2, 3, 0, 0, 5, 318, 0, 0, 0]<br/>class = 6>, fillcolor="#4340e6"] ;
479 -> 480 ;
481 [label=<pixel_584 &le; 45.0<br/>gini = 0.065<br/>samples = 201<br/>value = [2, 1, 3, 0, 0, 5, 318, 0, 0, 0]<br/>class = 6>, fillcolor="#4340e6"] ;
480 -> 481 ;
482 [label=<pixel_454 &le; 5.0<br/>gini = 0.054<br/>samples = 199<br/>value = [2, 1, 1, 0, 0, 5, 318, 0, 0, 0]<br/>class = 6>, fillcolor="#413fe6"] ;
481 -> 482 ;
483 [label=<pixel_301 &le; 239.5<br/>gini = 0.025<br/>samples = 193<br/>value = [2, 1, 1, 0, 0, 0, 311, 0, 0, 0]<br/>class = 6>, fillcolor="#3e3ce5"] ;
482 -> 483 ;
484 [label=<pixel_553 &le; 157.0<br/>gini = 0.013<br/>samples = 192<br/>value = [0, 1, 1, 0, 0, 0, 311, 0, 0, 0]<br/>class = 6>, fillcolor="#3d3ae5"] ;
483 -> 484 ;
485 [label=<pixel_572 &le; 253.5<br/>gini = 0.007<br/>samples = 169<br/>value = [0, 0, 1, 0, 0, 0, 279, 0, 0, 0]<br/>class = 6>, fillcolor="#3d3ae5"] ;
484 -> 485 ;
486 [label=<gini = 0.0<br/>samples = 133<br/>value = [0, 0, 0, 0, 0, 0, 217, 0, 0, 0]<br/>class = 6>, fillcolor="#3c39e5"] ;
485 -> 486 ;
487 [label=<pixel_602 &le; 12.5<br/>gini = 0.031<br/>samples = 36<br/>value = [0, 0, 1, 0, 0, 0, 62, 0, 0, 0]<br/>class = 6>, fillcolor="#3f3ce5"] ;
485 -> 487 ;
488 [label=<gini = 0.0<br/>samples = 1<br/>value = [0, 0, 1, 0, 0, 0, 0, 0, 0, 0]<br/>class = 2>, fillcolor="#7be539"] ;
487 -> 488 ;
489 [label=<gini = 0.0<br/>samples = 35<br/>value = [0, 0, 0, 0, 0, 0, 62, 0, 0, 0]<br/>class = 6>, fillcolor="#3c39e5"] ;
487 -> 489 ;
490 [label=<pixel_239 &le; 146.0<br/>gini = 0.059<br/>samples = 23<br/>value = [0, 1, 0, 0, 0, 0, 32, 0, 0, 0]<br/>class = 6>, fillcolor="#423fe6"] ;
484 -> 490 ;
491 [label=<gini = 0.0<br/>samples = 22<br/>value = [0, 0, 0, 0, 0, 0, 32, 0, 0, 0]<br/>class = 6>, fillcolor="#3c39e5"] ;
490 -> 491 ;
492 [label=<gini = 0.0<br/>samples = 1<br/>value = [0, 1, 0, 0, 0, 0, 0, 0, 0, 0]<br/>class = 1>, fillcolor="#e2e539"] ;
490 -> 492 ;
493 [label=<gini = 0.0<br/>samples = 1<br/>value = [2, 0, 0, 0, 0, 0, 0, 0, 0, 0]<br/>class = 0>, fillcolor="#e58139"] ;
483 -> 493 ;
494 [label=<pixel_290 &le; 126.0<br/>gini = 0.486<br/>samples = 6<br/>value = [0, 0, 0, 0, 0, 5, 7, 0, 0, 0]<br/>class = 6>, fillcolor="#c7c6f8"] ;
482 -> 494 ;
495 [label=<pixel_371 &le; 126.0<br/>gini = 0.278<br/>samples = 4<br/>value = [0, 0, 0, 0, 0, 5, 1, 0, 0, 0]<br/>class = 5>, fillcolor="#61b1ea"] ;
494 -> 495 ;
496 [label=<gini = 0.0<br/>samples = 3<br/>value = [0, 0, 0, 0, 0, 5, 0, 0, 0, 0]<br/>class = 5>, fillcolor="#399de5"] ;
495 -> 496 ;
497 [label=<gini = 0.0<br/>samples = 1<br/>value = [0, 0, 0, 0, 0, 0, 1, 0, 0, 0]<br/>class = 6>, fillcolor="#3c39e5"] ;
495 -> 497 ;
498 [label=<gini = 0.0<br/>samples = 2<br/>value = [0, 0, 0, 0, 0, 0, 6, 0, 0, 0]<br/>class = 6>, fillcolor="#3c39e5"] ;
494 -> 498 ;
499 [label=<gini = 0.0<br/>samples = 2<br/>value = [0, 0, 2, 0, 0, 0, 0, 0, 0, 0]<br/>class = 2>, fillcolor="#7be539"] ;
481 -> 499 ;
500 [label=<gini = 0.0<br/>samples = 1<br/>value = [0, 1, 0, 0, 0, 0, 0, 0, 0, 0]<br/>class = 1>, fillcolor="#e2e539"] ;
480 -> 500 ;
501 [label=<gini = 0.0<br/>samples = 1<br/>value = [0, 0, 0, 0, 0, 0, 0, 0, 1, 0]<br/>class = 8>, fillcolor="#e539c0"] ;
479 -> 501 ;
502 [label=<pixel_261 &le; 70.0<br/>gini = 0.477<br/>samples = 17<br/>value = [0, 0, 11, 0, 0, 0, 17, 0, 0, 0]<br/>class = 6>, fillcolor="#bab9f6"] ;
478 -> 502 ;
503 [label=<pixel_265 &le; 63.5<br/>gini = 0.484<br/>samples = 10<br/>value = [0, 0, 10, 0, 0, 0, 7, 0, 0, 0]<br/>class = 2>, fillcolor="#d7f7c4"] ;
502 -> 503 ;
504 [label=<pixel_456 &le; 101.5<br/>gini = 0.219<br/>samples = 4<br/>value = [0, 0, 1, 0, 0, 0, 7, 0, 0, 0]<br/>class = 6>, fillcolor="#5855e9"] ;
503 -> 504 ;
505 [label=<gini = 0.0<br/>samples = 1<br/>value = [0, 0, 1, 0, 0, 0, 0, 0, 0, 0]<br/>class = 2>, fillcolor="#7be539"] ;
504 -> 505 ;
506 [label=<gini = 0.0<br/>samples = 3<br/>value = [0, 0, 0, 0, 0, 0, 7, 0, 0, 0]<br/>class = 6>, fillcolor="#3c39e5"] ;
504 -> 506 ;
507 [label=<gini = 0.0<br/>samples = 6<br/>value = [0, 0, 9, 0, 0, 0, 0, 0, 0, 0]<br/>class = 2>, fillcolor="#7be539"] ;
503 -> 507 ;
508 [label=<pixel_236 &le; 111.5<br/>gini = 0.165<br/>samples = 7<br/>value = [0, 0, 1, 0, 0, 0, 10, 0, 0, 0]<br/>class = 6>, fillcolor="#504de8"] ;
502 -> 508 ;
509 [label=<gini = 0.0<br/>samples = 6<br/>value = [0, 0, 0, 0, 0, 0, 10, 0, 0, 0]<br/>class = 6>, fillcolor="#3c39e5"] ;
508 -> 509 ;
510 [label=<gini = 0.0<br/>samples = 1<br/>value = [0, 0, 1, 0, 0, 0, 0, 0, 0, 0]<br/>class = 2>, fillcolor="#7be539"] ;
508 -> 510 ;
511 [label=<pixel_319 &le; 81.0<br/>gini = 0.745<br/>samples = 19<br/>value = [0, 0, 12, 1, 4, 3, 12, 0, 4, 0]<br/>class = 2>, fillcolor="#ffffff"] ;
477 -> 511 ;
512 [label=<pixel_486 &le; 176.5<br/>gini = 0.585<br/>samples = 11<br/>value = [0, 0, 12, 1, 0, 1, 2, 0, 4, 0]<br/>class = 2>, fillcolor="#bdf29c"] ;
511 -> 512 ;
513 [label=<pixel_437 &le; 10.5<br/>gini = 0.571<br/>samples = 5<br/>value = [0, 0, 0, 0, 0, 1, 2, 0, 4, 0]<br/>class = 8>, fillcolor="#f5b0e6"] ;
512 -> 513 ;
514 [label=<pixel_236 &le; 108.0<br/>gini = 0.32<br/>samples = 4<br/>value = [0, 0, 0, 0, 0, 1, 0, 0, 4, 0]<br/>class = 8>, fillcolor="#ec6ad0"] ;
513 -> 514 ;
515 [label=<gini = 0.0<br/>samples = 3<br/>value = [0, 0, 0, 0, 0, 0, 0, 0, 4, 0]<br/>class = 8>, fillcolor="#e539c0"] ;
514 -> 515 ;
516 [label=<gini = 0.0<br/>samples = 1<br/>value = [0, 0, 0, 0, 0, 1, 0, 0, 0, 0]<br/>class = 5>, fillcolor="#399de5"] ;
514 -> 516 ;
517 [label=<gini = 0.0<br/>samples = 1<br/>value = [0, 0, 0, 0, 0, 0, 2, 0, 0, 0]<br/>class = 6>, fillcolor="#3c39e5"] ;
513 -> 517 ;
518 [label=<pixel_209 &le; 102.0<br/>gini = 0.142<br/>samples = 6<br/>value = [0, 0, 12, 1, 0, 0, 0, 0, 0, 0]<br/>class = 2>, fillcolor="#86e749"] ;
512 -> 518 ;
519 [label=<gini = 0.0<br/>samples = 4<br/>value = [0, 0, 10, 0, 0, 0, 0, 0, 0, 0]<br/>class = 2>, fillcolor="#7be539"] ;
518 -> 519 ;
520 [label=<pixel_296 &le; 214.0<br/>gini = 0.444<br/>samples = 2<br/>value = [0, 0, 2, 1, 0, 0, 0, 0, 0, 0]<br/>class = 2>, fillcolor="#bdf29c"] ;
518 -> 520 ;
521 [label=<gini = 0.0<br/>samples = 1<br/>value = [0, 0, 0, 1, 0, 0, 0, 0, 0, 0]<br/>class = 3>, fillcolor="#39e55e"] ;
520 -> 521 ;
522 [label=<gini = 0.0<br/>samples = 1<br/>value = [0, 0, 2, 0, 0, 0, 0, 0, 0, 0]<br/>class = 2>, fillcolor="#7be539"] ;
520 -> 522 ;
523 [label=<pixel_214 &le; 121.5<br/>gini = 0.531<br/>samples = 8<br/>value = [0, 0, 0, 0, 4, 2, 10, 0, 0, 0]<br/>class = 6>, fillcolor="#9e9cf2"] ;
511 -> 523 ;
524 [label=<gini = 0.0<br/>samples = 5<br/>value = [0, 0, 0, 0, 0, 0, 10, 0, 0, 0]<br/>class = 6>, fillcolor="#3c39e5"] ;
523 -> 524 ;
525 [label=<pixel_351 &le; 82.0<br/>gini = 0.444<br/>samples = 3<br/>value = [0, 0, 0, 0, 4, 2, 0, 0, 0, 0]<br/>class = 4>, fillcolor="#9cf2e2"] ;
523 -> 525 ;
526 [label=<gini = 0.0<br/>samples = 2<br/>value = [0, 0, 0, 0, 0, 2, 0, 0, 0, 0]<br/>class = 5>, fillcolor="#399de5"] ;
525 -> 526 ;
527 [label=<gini = 0.0<br/>samples = 1<br/>value = [0, 0, 0, 0, 4, 0, 0, 0, 0, 0]<br/>class = 4>, fillcolor="#39e5c5"] ;
525 -> 527 ;
528 [label=<pixel_573 &le; 196.5<br/>gini = 0.208<br/>samples = 11<br/>value = [0, 0, 15, 0, 0, 0, 2, 0, 0, 0]<br/>class = 2>, fillcolor="#8de853"] ;
476 -> 528 ;
529 [label=<gini = 0.0<br/>samples = 9<br/>value = [0, 0, 15, 0, 0, 0, 0, 0, 0, 0]<br/>class = 2>, fillcolor="#7be539"] ;
528 -> 529 ;
530 [label=<gini = 0.0<br/>samples = 2<br/>value = [0, 0, 0, 0, 0, 0, 2, 0, 0, 0]<br/>class = 6>, fillcolor="#3c39e5"] ;
528 -> 530 ;
531 [label=<pixel_411 &le; 17.0<br/>gini = 0.828<br/>samples = 101<br/>value = [7, 8, 26, 20, 53, 8, 11, 4, 13, 12]<br/>class = 4>, fillcolor="#d8faf3"] ;
419 -> 531 ;
532 [label=<pixel_581 &le; 6.0<br/>gini = 0.878<br/>samples = 58<br/>value = [4, 8, 13, 20, 12, 8, 9, 3, 13, 9]<br/>class = 3>, fillcolor="#effdf2"] ;
531 -> 532 ;
533 [label=<pixel_184 &le; 63.0<br/>gini = 0.854<br/>samples = 46<br/>value = [2, 8, 2, 20, 12, 6, 5, 3, 13, 9]<br/>class = 3>, fillcolor="#eafcee"] ;
532 -> 533 ;
534 [label=<pixel_569 &le; 35.0<br/>gini = 0.85<br/>samples = 24<br/>value = [2, 8, 2, 0, 9, 4, 5, 3, 1, 6]<br/>class = 4>, fillcolor="#f9fefd"] ;
533 -> 534 ;
535 [label=<pixel_381 &le; 75.5<br/>gini = 0.784<br/>samples = 17<br/>value = [2, 0, 2, 0, 9, 4, 2, 0, 1, 6]<br/>class = 4>, fillcolor="#e1fbf6"] ;
534 -> 535 ;
536 [label=<pixel_321 &le; 132.0<br/>gini = 0.815<br/>samples = 13<br/>value = [2, 0, 2, 0, 3, 4, 2, 0, 1, 6]<br/>class = 9>, fillcolor="#fce6ea"] ;
535 -> 536 ;
537 [label=<pixel_212 &le; 13.0<br/>gini = 0.773<br/>samples = 11<br/>value = [2, 0, 2, 0, 3, 0, 2, 0, 1, 6]<br/>class = 9>, fillcolor="#f9d1d8"] ;
536 -> 537 ;
538 [label=<pixel_579 &le; 4.5<br/>gini = 0.611<br/>samples = 5<br/>value = [0, 0, 0, 0, 3, 0, 2, 0, 1, 0]<br/>class = 4>, fillcolor="#cef8f0"] ;
537 -> 538 ;
539 [label=<pixel_100 &le; 71.5<br/>gini = 0.375<br/>samples = 4<br/>value = [0, 0, 0, 0, 3, 0, 0, 0, 1, 0]<br/>class = 4>, fillcolor="#7beed8"] ;
538 -> 539 ;
540 [label=<gini = 0.0<br/>samples = 3<br/>value = [0, 0, 0, 0, 3, 0, 0, 0, 0, 0]<br/>class = 4>, fillcolor="#39e5c5"] ;
539 -> 540 ;
541 [label=<gini = 0.0<br/>samples = 1<br/>value = [0, 0, 0, 0, 0, 0, 0, 0, 1, 0]<br/>class = 8>, fillcolor="#e539c0"] ;
539 -> 541 ;
542 [label=<gini = 0.0<br/>samples = 1<br/>value = [0, 0, 0, 0, 0, 0, 2, 0, 0, 0]<br/>class = 6>, fillcolor="#3c39e5"] ;
538 -> 542 ;
543 [label=<pixel_272 &le; 60.5<br/>gini = 0.56<br/>samples = 6<br/>value = [2, 0, 2, 0, 0, 0, 0, 0, 0, 6]<br/>class = 9>, fillcolor="#f29cac"] ;
537 -> 543 ;
544 [label=<pixel_381 &le; 8.5<br/>gini = 0.375<br/>samples = 5<br/>value = [0, 0, 2, 0, 0, 0, 0, 0, 0, 6]<br/>class = 9>, fillcolor="#ee7b90"] ;
543 -> 544 ;
545 [label=<gini = 0.0<br/>samples = 1<br/>value = [0, 0, 2, 0, 0, 0, 0, 0, 0, 0]<br/>class = 2>, fillcolor="#7be539"] ;
544 -> 545 ;
546 [label=<gini = 0.0<br/>samples = 4<br/>value = [0, 0, 0, 0, 0, 0, 0, 0, 0, 6]<br/>class = 9>, fillcolor="#e53958"] ;
544 -> 546 ;
547 [label=<gini = 0.0<br/>samples = 1<br/>value = [2, 0, 0, 0, 0, 0, 0, 0, 0, 0]<br/>class = 0>, fillcolor="#e58139"] ;
543 -> 547 ;
548 [label=<gini = 0.0<br/>samples = 2<br/>value = [0, 0, 0, 0, 0, 4, 0, 0, 0, 0]<br/>class = 5>, fillcolor="#399de5"] ;
536 -> 548 ;
549 [label=<gini = 0.0<br/>samples = 4<br/>value = [0, 0, 0, 0, 6, 0, 0, 0, 0, 0]<br/>class = 4>, fillcolor="#39e5c5"] ;
535 -> 549 ;
550 [label=<pixel_298 &le; 207.5<br/>gini = 0.582<br/>samples = 7<br/>value = [0, 8, 0, 0, 0, 0, 3, 3, 0, 0]<br/>class = 1>, fillcolor="#f2f3a5"] ;
534 -> 550 ;
551 [label=<gini = 0.0<br/>samples = 4<br/>value = [0, 8, 0, 0, 0, 0, 0, 0, 0, 0]<br/>class = 1>, fillcolor="#e2e539"] ;
550 -> 551 ;
552 [label=<pixel_375 &le; 57.5<br/>gini = 0.5<br/>samples = 3<br/>value = [0, 0, 0, 0, 0, 0, 3, 3, 0, 0]<br/>class = 6>, fillcolor="#ffffff"] ;
550 -> 552 ;
553 [label=<gini = 0.0<br/>samples = 1<br/>value = [0, 0, 0, 0, 0, 0, 0, 3, 0, 0]<br/>class = 7>, fillcolor="#a339e5"] ;
552 -> 553 ;
554 [label=<gini = 0.0<br/>samples = 2<br/>value = [0, 0, 0, 0, 0, 0, 3, 0, 0, 0]<br/>class = 6>, fillcolor="#3c39e5"] ;
552 -> 554 ;
555 [label=<pixel_542 &le; 64.5<br/>gini = 0.646<br/>samples = 22<br/>value = [0, 0, 0, 20, 3, 2, 0, 0, 12, 3]<br/>class = 3>, fillcolor="#c6f8d1"] ;
533 -> 555 ;
556 [label=<pixel_711 &le; 184.5<br/>gini = 0.513<br/>samples = 17<br/>value = [0, 0, 0, 20, 0, 2, 0, 0, 5, 3]<br/>class = 3>, fillcolor="#88ef9e"] ;
555 -> 556 ;
557 [label=<pixel_654 &le; 17.5<br/>gini = 0.412<br/>samples = 15<br/>value = [0, 0, 0, 20, 0, 2, 0, 0, 5, 0]<br/>class = 3>, fillcolor="#78ed91"] ;
556 -> 557 ;
558 [label=<pixel_243 &le; 156.5<br/>gini = 0.32<br/>samples = 4<br/>value = [0, 0, 0, 1, 0, 0, 0, 0, 4, 0]<br/>class = 8>, fillcolor="#ec6ad0"] ;
557 -> 558 ;
559 [label=<gini = 0.0<br/>samples = 1<br/>value = [0, 0, 0, 1, 0, 0, 0, 0, 0, 0]<br/>class = 3>, fillcolor="#39e55e"] ;
558 -> 559 ;
560 [label=<gini = 0.0<br/>samples = 3<br/>value = [0, 0, 0, 0, 0, 0, 0, 0, 4, 0]<br/>class = 8>, fillcolor="#e539c0"] ;
558 -> 560 ;
561 [label=<pixel_263 &le; 61.5<br/>gini = 0.244<br/>samples = 11<br/>value = [0, 0, 0, 19, 0, 2, 0, 0, 1, 0]<br/>class = 3>, fillcolor="#57e976"] ;
557 -> 561 ;
562 [label=<gini = 0.0<br/>samples = 9<br/>value = [0, 0, 0, 19, 0, 0, 0, 0, 0, 0]<br/>class = 3>, fillcolor="#39e55e"] ;
561 -> 562 ;
563 [label=<pixel_429 &le; 25.0<br/>gini = 0.444<br/>samples = 2<br/>value = [0, 0, 0, 0, 0, 2, 0, 0, 1, 0]<br/>class = 5>, fillcolor="#9ccef2"] ;
561 -> 563 ;
564 [label=<gini = 0.0<br/>samples = 1<br/>value = [0, 0, 0, 0, 0, 2, 0, 0, 0, 0]<br/>class = 5>, fillcolor="#399de5"] ;
563 -> 564 ;
565 [label=<gini = 0.0<br/>samples = 1<br/>value = [0, 0, 0, 0, 0, 0, 0, 0, 1, 0]<br/>class = 8>, fillcolor="#e539c0"] ;
563 -> 565 ;
566 [label=<gini = 0.0<br/>samples = 2<br/>value = [0, 0, 0, 0, 0, 0, 0, 0, 0, 3]<br/>class = 9>, fillcolor="#e53958"] ;
556 -> 566 ;
567 [label=<pixel_212 &le; 185.0<br/>gini = 0.42<br/>samples = 5<br/>value = [0, 0, 0, 0, 3, 0, 0, 0, 7, 0]<br/>class = 8>, fillcolor="#f08edb"] ;
555 -> 567 ;
568 [label=<gini = 0.0<br/>samples = 4<br/>value = [0, 0, 0, 0, 0, 0, 0, 0, 7, 0]<br/>class = 8>, fillcolor="#e539c0"] ;
567 -> 568 ;
569 [label=<gini = 0.0<br/>samples = 1<br/>value = [0, 0, 0, 0, 3, 0, 0, 0, 0, 0]<br/>class = 4>, fillcolor="#39e5c5"] ;
567 -> 569 ;
570 [label=<pixel_603 &le; 57.5<br/>gini = 0.598<br/>samples = 12<br/>value = [2, 0, 11, 0, 0, 2, 4, 0, 0, 0]<br/>class = 2>, fillcolor="#c1f3a3"] ;
532 -> 570 ;
571 [label=<pixel_713 &le; 53.0<br/>gini = 0.18<br/>samples = 6<br/>value = [0, 0, 9, 0, 0, 1, 0, 0, 0, 0]<br/>class = 2>, fillcolor="#8ae84f"] ;
570 -> 571 ;
572 [label=<gini = 0.0<br/>samples = 5<br/>value = [0, 0, 9, 0, 0, 0, 0, 0, 0, 0]<br/>class = 2>, fillcolor="#7be539"] ;
571 -> 572 ;
573 [label=<gini = 0.0<br/>samples = 1<br/>value = [0, 0, 0, 0, 0, 1, 0, 0, 0, 0]<br/>class = 5>, fillcolor="#399de5"] ;
571 -> 573 ;
574 [label=<pixel_344 &le; 30.0<br/>gini = 0.691<br/>samples = 6<br/>value = [2, 0, 2, 0, 0, 1, 4, 0, 0, 0]<br/>class = 6>, fillcolor="#c7c6f8"] ;
570 -> 574 ;
575 [label=<gini = 0.0<br/>samples = 2<br/>value = [0, 0, 2, 0, 0, 0, 0, 0, 0, 0]<br/>class = 2>, fillcolor="#7be539"] ;
574 -> 575 ;
576 [label=<pixel_179 &le; 121.5<br/>gini = 0.571<br/>samples = 4<br/>value = [2, 0, 0, 0, 0, 1, 4, 0, 0, 0]<br/>class = 6>, fillcolor="#b1b0f5"] ;
574 -> 576 ;
577 [label=<gini = 0.0<br/>samples = 2<br/>value = [0, 0, 0, 0, 0, 0, 4, 0, 0, 0]<br/>class = 6>, fillcolor="#3c39e5"] ;
576 -> 577 ;
578 [label=<pixel_465 &le; 99.5<br/>gini = 0.444<br/>samples = 2<br/>value = [2, 0, 0, 0, 0, 1, 0, 0, 0, 0]<br/>class = 0>, fillcolor="#f2c09c"] ;
576 -> 578 ;
579 [label=<gini = 0.0<br/>samples = 1<br/>value = [2, 0, 0, 0, 0, 0, 0, 0, 0, 0]<br/>class = 0>, fillcolor="#e58139"] ;
578 -> 579 ;
580 [label=<gini = 0.0<br/>samples = 1<br/>value = [0, 0, 0, 0, 0, 1, 0, 0, 0, 0]<br/>class = 5>, fillcolor="#399de5"] ;
578 -> 580 ;
581 [label=<pixel_154 &le; 33.5<br/>gini = 0.528<br/>samples = 43<br/>value = [3, 0, 13, 0, 41, 0, 2, 1, 0, 3]<br/>class = 4>, fillcolor="#90f0df"] ;
531 -> 581 ;
582 [label=<pixel_433 &le; 5.0<br/>gini = 0.299<br/>samples = 33<br/>value = [1, 0, 2, 0, 40, 0, 2, 1, 0, 2]<br/>class = 4>, fillcolor="#5beacf"] ;
581 -> 582 ;
583 [label=<pixel_399 &le; 150.5<br/>gini = 0.815<br/>samples = 6<br/>value = [1, 0, 1, 0, 2, 0, 2, 1, 0, 2]<br/>class = 4>, fillcolor="#ffffff"] ;
582 -> 583 ;
584 [label=<pixel_324 &le; 151.5<br/>gini = 0.776<br/>samples = 5<br/>value = [1, 0, 1, 0, 2, 0, 2, 1, 0, 0]<br/>class = 4>, fillcolor="#ffffff"] ;
583 -> 584 ;
585 [label=<pixel_408 &le; 82.5<br/>gini = 0.72<br/>samples = 4<br/>value = [1, 0, 1, 0, 2, 0, 0, 1, 0, 0]<br/>class = 4>, fillcolor="#cef8f0"] ;
584 -> 585 ;
586 [label=<pixel_268 &le; 28.5<br/>gini = 0.667<br/>samples = 3<br/>value = [1, 0, 1, 0, 0, 0, 0, 1, 0, 0]<br/>class = 0>, fillcolor="#ffffff"] ;
585 -> 586 ;
587 [label=<gini = 0.0<br/>samples = 1<br/>value = [1, 0, 0, 0, 0, 0, 0, 0, 0, 0]<br/>class = 0>, fillcolor="#e58139"] ;
586 -> 587 ;
588 [label=<pixel_317 &le; 126.5<br/>gini = 0.5<br/>samples = 2<br/>value = [0, 0, 1, 0, 0, 0, 0, 1, 0, 0]<br/>class = 2>, fillcolor="#ffffff"] ;
586 -> 588 ;
589 [label=<gini = 0.0<br/>samples = 1<br/>value = [0, 0, 1, 0, 0, 0, 0, 0, 0, 0]<br/>class = 2>, fillcolor="#7be539"] ;
588 -> 589 ;
590 [label=<gini = 0.0<br/>samples = 1<br/>value = [0, 0, 0, 0, 0, 0, 0, 1, 0, 0]<br/>class = 7>, fillcolor="#a339e5"] ;
588 -> 590 ;
591 [label=<gini = 0.0<br/>samples = 1<br/>value = [0, 0, 0, 0, 2, 0, 0, 0, 0, 0]<br/>class = 4>, fillcolor="#39e5c5"] ;
585 -> 591 ;
592 [label=<gini = 0.0<br/>samples = 1<br/>value = [0, 0, 0, 0, 0, 0, 2, 0, 0, 0]<br/>class = 6>, fillcolor="#3c39e5"] ;
584 -> 592 ;
593 [label=<gini = 0.0<br/>samples = 1<br/>value = [0, 0, 0, 0, 0, 0, 0, 0, 0, 2]<br/>class = 9>, fillcolor="#e53958"] ;
583 -> 593 ;
594 [label=<pixel_182 &le; 96.0<br/>gini = 0.05<br/>samples = 27<br/>value = [0, 0, 1, 0, 38, 0, 0, 0, 0, 0]<br/>class = 4>, fillcolor="#3ee6c7"] ;
582 -> 594 ;
595 [label=<gini = 0.0<br/>samples = 26<br/>value = [0, 0, 0, 0, 38, 0, 0, 0, 0, 0]<br/>class = 4>, fillcolor="#39e5c5"] ;
594 -> 595 ;
596 [label=<gini = 0.0<br/>samples = 1<br/>value = [0, 0, 1, 0, 0, 0, 0, 0, 0, 0]<br/>class = 2>, fillcolor="#7be539"] ;
594 -> 596 ;
597 [label=<pixel_272 &le; 17.0<br/>gini = 0.436<br/>samples = 10<br/>value = [2, 0, 11, 0, 1, 0, 0, 0, 0, 1]<br/>class = 2>, fillcolor="#a4ed76"] ;
581 -> 597 ;
598 [label=<pixel_490 &le; 27.0<br/>gini = 0.625<br/>samples = 4<br/>value = [2, 0, 0, 0, 1, 0, 0, 0, 0, 1]<br/>class = 0>, fillcolor="#f6d5bd"] ;
597 -> 598 ;
599 [label=<gini = 0.0<br/>samples = 2<br/>value = [2, 0, 0, 0, 0, 0, 0, 0, 0, 0]<br/>class = 0>, fillcolor="#e58139"] ;
598 -> 599 ;
600 [label=<pixel_181 &le; 251.0<br/>gini = 0.5<br/>samples = 2<br/>value = [0, 0, 0, 0, 1, 0, 0, 0, 0, 1]<br/>class = 4>, fillcolor="#ffffff"] ;
598 -> 600 ;
601 [label=<gini = 0.0<br/>samples = 1<br/>value = [0, 0, 0, 0, 0, 0, 0, 0, 0, 1]<br/>class = 9>, fillcolor="#e53958"] ;
600 -> 601 ;
602 [label=<gini = 0.0<br/>samples = 1<br/>value = [0, 0, 0, 0, 1, 0, 0, 0, 0, 0]<br/>class = 4>, fillcolor="#39e5c5"] ;
600 -> 602 ;
603 [label=<gini = 0.0<br/>samples = 6<br/>value = [0, 0, 11, 0, 0, 0, 0, 0, 0, 0]<br/>class = 2>, fillcolor="#7be539"] ;
597 -> 603 ;
604 [label=<pixel_286 &le; 58.0<br/>gini = 0.714<br/>samples = 63<br/>value = [3, 0, 11, 11, 24, 45, 2, 0, 2, 2]<br/>class = 5>, fillcolor="#c8e4f8"] ;
418 -> 604 ;
605 [label=<pixel_381 &le; 2.0<br/>gini = 0.643<br/>samples = 50<br/>value = [1, 0, 11, 11, 8, 45, 1, 0, 2, 2]<br/>class = 5>, fillcolor="#9fcff2"] ;
604 -> 605 ;
606 [label=<pixel_357 &le; 4.5<br/>gini = 0.45<br/>samples = 38<br/>value = [1, 0, 7, 2, 6, 45, 1, 0, 0, 0]<br/>class = 5>, fillcolor="#76bbed"] ;
605 -> 606 ;
607 [label=<pixel_352 &le; 199.5<br/>gini = 0.153<br/>samples = 29<br/>value = [0, 0, 0, 2, 2, 45, 0, 0, 0, 0]<br/>class = 5>, fillcolor="#4aa5e7"] ;
606 -> 607 ;
608 [label=<gini = 0.0<br/>samples = 27<br/>value = [0, 0, 0, 0, 0, 45, 0, 0, 0, 0]<br/>class = 5>, fillcolor="#399de5"] ;
607 -> 608 ;
609 [label=<pixel_345 &le; 125.5<br/>gini = 0.5<br/>samples = 2<br/>value = [0, 0, 0, 2, 2, 0, 0, 0, 0, 0]<br/>class = 3>, fillcolor="#ffffff"] ;
607 -> 609 ;
610 [label=<gini = 0.0<br/>samples = 1<br/>value = [0, 0, 0, 2, 0, 0, 0, 0, 0, 0]<br/>class = 3>, fillcolor="#39e55e"] ;
609 -> 610 ;
611 [label=<gini = 0.0<br/>samples = 1<br/>value = [0, 0, 0, 0, 2, 0, 0, 0, 0, 0]<br/>class = 4>, fillcolor="#39e5c5"] ;
609 -> 611 ;
612 [label=<pixel_317 &le; 59.0<br/>gini = 0.604<br/>samples = 9<br/>value = [1, 0, 7, 0, 4, 0, 1, 0, 0, 0]<br/>class = 2>, fillcolor="#d3f6bd"] ;
606 -> 612 ;
613 [label=<gini = 0.0<br/>samples = 5<br/>value = [0, 0, 7, 0, 0, 0, 0, 0, 0, 0]<br/>class = 2>, fillcolor="#7be539"] ;
612 -> 613 ;
614 [label=<pixel_413 &le; 227.5<br/>gini = 0.5<br/>samples = 4<br/>value = [1, 0, 0, 0, 4, 0, 1, 0, 0, 0]<br/>class = 4>, fillcolor="#88efdc"] ;
612 -> 614 ;
615 [label=<gini = 0.0<br/>samples = 2<br/>value = [0, 0, 0, 0, 4, 0, 0, 0, 0, 0]<br/>class = 4>, fillcolor="#39e5c5"] ;
614 -> 615 ;
616 [label=<pixel_386 &le; 187.0<br/>gini = 0.5<br/>samples = 2<br/>value = [1, 0, 0, 0, 0, 0, 1, 0, 0, 0]<br/>class = 0>, fillcolor="#ffffff"] ;
614 -> 616 ;
617 [label=<gini = 0.0<br/>samples = 1<br/>value = [0, 0, 0, 0, 0, 0, 1, 0, 0, 0]<br/>class = 6>, fillcolor="#3c39e5"] ;
616 -> 617 ;
618 [label=<gini = 0.0<br/>samples = 1<br/>value = [1, 0, 0, 0, 0, 0, 0, 0, 0, 0]<br/>class = 0>, fillcolor="#e58139"] ;
616 -> 618 ;
619 [label=<pixel_490 &le; 253.5<br/>gini = 0.698<br/>samples = 12<br/>value = [0, 0, 4, 9, 2, 0, 0, 0, 2, 2]<br/>class = 3>, fillcolor="#bdf6c9"] ;
605 -> 619 ;
620 [label=<pixel_319 &le; 33.5<br/>gini = 0.587<br/>samples = 11<br/>value = [0, 0, 0, 9, 2, 0, 0, 0, 2, 2]<br/>class = 3>, fillcolor="#94f1a8"] ;
619 -> 620 ;
621 [label=<gini = 0.0<br/>samples = 6<br/>value = [0, 0, 0, 9, 0, 0, 0, 0, 0, 0]<br/>class = 3>, fillcolor="#39e55e"] ;
620 -> 621 ;
622 [label=<pixel_510 &le; 124.5<br/>gini = 0.667<br/>samples = 5<br/>value = [0, 0, 0, 0, 2, 0, 0, 0, 2, 2]<br/>class = 4>, fillcolor="#ffffff"] ;
620 -> 622 ;
623 [label=<pixel_299 &le; 47.0<br/>gini = 0.5<br/>samples = 3<br/>value = [0, 0, 0, 0, 2, 0, 0, 0, 0, 2]<br/>class = 4>, fillcolor="#ffffff"] ;
622 -> 623 ;
624 [label=<gini = 0.0<br/>samples = 1<br/>value = [0, 0, 0, 0, 0, 0, 0, 0, 0, 2]<br/>class = 9>, fillcolor="#e53958"] ;
623 -> 624 ;
625 [label=<gini = 0.0<br/>samples = 2<br/>value = [0, 0, 0, 0, 2, 0, 0, 0, 0, 0]<br/>class = 4>, fillcolor="#39e5c5"] ;
623 -> 625 ;
626 [label=<gini = 0.0<br/>samples = 2<br/>value = [0, 0, 0, 0, 0, 0, 0, 0, 2, 0]<br/>class = 8>, fillcolor="#e539c0"] ;
622 -> 626 ;
627 [label=<gini = 0.0<br/>samples = 1<br/>value = [0, 0, 4, 0, 0, 0, 0, 0, 0, 0]<br/>class = 2>, fillcolor="#7be539"] ;
619 -> 627 ;
628 [label=<pixel_569 &le; 25.5<br/>gini = 0.277<br/>samples = 13<br/>value = [2, 0, 0, 0, 16, 0, 1, 0, 0, 0]<br/>class = 4>, fillcolor="#5ceacf"] ;
604 -> 628 ;
629 [label=<gini = 0.0<br/>samples = 11<br/>value = [0, 0, 0, 0, 16, 0, 0, 0, 0, 0]<br/>class = 4>, fillcolor="#39e5c5"] ;
628 -> 629 ;
630 [label=<pixel_485 &le; 172.0<br/>gini = 0.444<br/>samples = 2<br/>value = [2, 0, 0, 0, 0, 0, 1, 0, 0, 0]<br/>class = 0>, fillcolor="#f2c09c"] ;
628 -> 630 ;
631 [label=<gini = 0.0<br/>samples = 1<br/>value = [0, 0, 0, 0, 0, 0, 1, 0, 0, 0]<br/>class = 6>, fillcolor="#3c39e5"] ;
630 -> 631 ;
632 [label=<gini = 0.0<br/>samples = 1<br/>value = [2, 0, 0, 0, 0, 0, 0, 0, 0, 0]<br/>class = 0>, fillcolor="#e58139"] ;
630 -> 632 ;
633 [label=<pixel_299 &le; 1.5<br/>gini = 0.741<br/>samples = 608<br/>value = [107, 8, 20, 135, 10, 377, 23, 7, 269, 17]<br/>class = 5>, fillcolor="#e1f0fb"] ;
417 -> 633 ;
634 [label=<pixel_346 &le; 0.5<br/>gini = 0.546<br/>samples = 331<br/>value = [10, 8, 6, 66, 8, 350, 20, 5, 58, 6]<br/>class = 5>, fillcolor="#88c4ef"] ;
633 -> 634 ;
635 [label=<pixel_399 &le; 28.0<br/>gini = 0.753<br/>samples = 97<br/>value = [2, 8, 6, 52, 2, 49, 5, 5, 26, 0]<br/>class = 3>, fillcolor="#f9fefa"] ;
634 -> 635 ;
636 [label=<pixel_514 &le; 36.0<br/>gini = 0.737<br/>samples = 76<br/>value = [2, 8, 5, 52, 0, 19, 5, 5, 24, 0]<br/>class = 3>, fillcolor="#c5f7d0"] ;
635 -> 636 ;
637 [label=<pixel_319 &le; 0.5<br/>gini = 0.659<br/>samples = 56<br/>value = [2, 8, 1, 49, 0, 19, 5, 3, 5, 0]<br/>class = 3>, fillcolor="#aef4bd"] ;
636 -> 637 ;
638 [label=<pixel_292 &le; 13.0<br/>gini = 0.465<br/>samples = 39<br/>value = [0, 5, 1, 45, 0, 8, 0, 3, 1, 0]<br/>class = 3>, fillcolor="#7aee93"] ;
637 -> 638 ;
639 [label=<pixel_372 &le; 120.0<br/>gini = 0.296<br/>samples = 34<br/>value = [0, 0, 1, 45, 0, 4, 0, 3, 1, 0]<br/>class = 3>, fillcolor="#5dea7b"] ;
638 -> 639 ;
640 [label=<pixel_570 &le; 209.0<br/>gini = 0.152<br/>samples = 31<br/>value = [0, 0, 1, 45, 0, 0, 0, 3, 0, 0]<br/>class = 3>, fillcolor="#4ae76c"] ;
639 -> 640 ;
641 [label=<pixel_545 &le; 61.5<br/>gini = 0.117<br/>samples = 30<br/>value = [0, 0, 0, 45, 0, 0, 0, 3, 0, 0]<br/>class = 3>, fillcolor="#46e769"] ;
640 -> 641 ;
642 [label=<gini = 0.0<br/>samples = 27<br/>value = [0, 0, 0, 44, 0, 0, 0, 0, 0, 0]<br/>class = 3>, fillcolor="#39e55e"] ;
641 -> 642 ;
643 [label=<pixel_463 &le; 19.0<br/>gini = 0.375<br/>samples = 3<br/>value = [0, 0, 0, 1, 0, 0, 0, 3, 0, 0]<br/>class = 7>, fillcolor="#c27bee"] ;
641 -> 643 ;
644 [label=<gini = 0.0<br/>samples = 1<br/>value = [0, 0, 0, 1, 0, 0, 0, 0, 0, 0]<br/>class = 3>, fillcolor="#39e55e"] ;
643 -> 644 ;
645 [label=<gini = 0.0<br/>samples = 2<br/>value = [0, 0, 0, 0, 0, 0, 0, 3, 0, 0]<br/>class = 7>, fillcolor="#a339e5"] ;
643 -> 645 ;
646 [label=<gini = 0.0<br/>samples = 1<br/>value = [0, 0, 1, 0, 0, 0, 0, 0, 0, 0]<br/>class = 2>, fillcolor="#7be539"] ;
640 -> 646 ;
647 [label=<pixel_407 &le; 127.0<br/>gini = 0.32<br/>samples = 3<br/>value = [0, 0, 0, 0, 0, 4, 0, 0, 1, 0]<br/>class = 5>, fillcolor="#6ab6ec"] ;
639 -> 647 ;
648 [label=<gini = 0.0<br/>samples = 2<br/>value = [0, 0, 0, 0, 0, 4, 0, 0, 0, 0]<br/>class = 5>, fillcolor="#399de5"] ;
647 -> 648 ;
649 [label=<gini = 0.0<br/>samples = 1<br/>value = [0, 0, 0, 0, 0, 0, 0, 0, 1, 0]<br/>class = 8>, fillcolor="#e539c0"] ;
647 -> 649 ;
650 [label=<pixel_549 &le; 65.0<br/>gini = 0.494<br/>samples = 5<br/>value = [0, 5, 0, 0, 0, 4, 0, 0, 0, 0]<br/>class = 1>, fillcolor="#f9fad7"] ;
638 -> 650 ;
651 [label=<pixel_574 &le; 152.0<br/>gini = 0.32<br/>samples = 4<br/>value = [0, 1, 0, 0, 0, 4, 0, 0, 0, 0]<br/>class = 5>, fillcolor="#6ab6ec"] ;
650 -> 651 ;
652 [label=<gini = 0.0<br/>samples = 3<br/>value = [0, 0, 0, 0, 0, 4, 0, 0, 0, 0]<br/>class = 5>, fillcolor="#399de5"] ;
651 -> 652 ;
653 [label=<gini = 0.0<br/>samples = 1<br/>value = [0, 1, 0, 0, 0, 0, 0, 0, 0, 0]<br/>class = 1>, fillcolor="#e2e539"] ;
651 -> 653 ;
654 [label=<gini = 0.0<br/>samples = 1<br/>value = [0, 4, 0, 0, 0, 0, 0, 0, 0, 0]<br/>class = 1>, fillcolor="#e2e539"] ;
650 -> 654 ;
655 [label=<pixel_205 &le; 126.0<br/>gini = 0.773<br/>samples = 17<br/>value = [2, 3, 0, 4, 0, 11, 5, 0, 4, 0]<br/>class = 5>, fillcolor="#cee6f8"] ;
637 -> 655 ;
656 [label=<pixel_319 &le; 205.5<br/>gini = 0.72<br/>samples = 16<br/>value = [2, 3, 0, 0, 0, 11, 5, 0, 4, 0]<br/>class = 5>, fillcolor="#c4e2f7"] ;
655 -> 656 ;
657 [label=<pixel_661 &le; 60.5<br/>gini = 0.604<br/>samples = 13<br/>value = [0, 3, 0, 0, 0, 11, 2, 0, 3, 0]<br/>class = 5>, fillcolor="#9ccef2"] ;
656 -> 657 ;
658 [label=<pixel_405 &le; 243.5<br/>gini = 0.337<br/>samples = 10<br/>value = [0, 3, 0, 0, 0, 11, 0, 0, 0, 0]<br/>class = 5>, fillcolor="#6fb8ec"] ;
657 -> 658 ;
659 [label=<gini = 0.0<br/>samples = 8<br/>value = [0, 0, 0, 0, 0, 11, 0, 0, 0, 0]<br/>class = 5>, fillcolor="#399de5"] ;
658 -> 659 ;
660 [label=<gini = 0.0<br/>samples = 2<br/>value = [0, 3, 0, 0, 0, 0, 0, 0, 0, 0]<br/>class = 1>, fillcolor="#e2e539"] ;
658 -> 660 ;
661 [label=<pixel_157 &le; 127.0<br/>gini = 0.48<br/>samples = 3<br/>value = [0, 0, 0, 0, 0, 0, 2, 0, 3, 0]<br/>class = 8>, fillcolor="#f6bdea"] ;
657 -> 661 ;
662 [label=<gini = 0.0<br/>samples = 2<br/>value = [0, 0, 0, 0, 0, 0, 0, 0, 3, 0]<br/>class = 8>, fillcolor="#e539c0"] ;
661 -> 662 ;
663 [label=<gini = 0.0<br/>samples = 1<br/>value = [0, 0, 0, 0, 0, 0, 2, 0, 0, 0]<br/>class = 6>, fillcolor="#3c39e5"] ;
661 -> 663 ;
664 [label=<pixel_632 &le; 192.0<br/>gini = 0.611<br/>samples = 3<br/>value = [2, 0, 0, 0, 0, 0, 3, 0, 1, 0]<br/>class = 6>, fillcolor="#cecef8"] ;
656 -> 664 ;
665 [label=<pixel_657 &le; 231.0<br/>gini = 0.444<br/>samples = 2<br/>value = [2, 0, 0, 0, 0, 0, 0, 0, 1, 0]<br/>class = 0>, fillcolor="#f2c09c"] ;
664 -> 665 ;
666 [label=<gini = 0.0<br/>samples = 1<br/>value = [0, 0, 0, 0, 0, 0, 0, 0, 1, 0]<br/>class = 8>, fillcolor="#e539c0"] ;
665 -> 666 ;
667 [label=<gini = 0.0<br/>samples = 1<br/>value = [2, 0, 0, 0, 0, 0, 0, 0, 0, 0]<br/>class = 0>, fillcolor="#e58139"] ;
665 -> 667 ;
668 [label=<gini = 0.0<br/>samples = 1<br/>value = [0, 0, 0, 0, 0, 0, 3, 0, 0, 0]<br/>class = 6>, fillcolor="#3c39e5"] ;
664 -> 668 ;
669 [label=<gini = 0.0<br/>samples = 1<br/>value = [0, 0, 0, 4, 0, 0, 0, 0, 0, 0]<br/>class = 3>, fillcolor="#39e55e"] ;
655 -> 669 ;
670 [label=<pixel_182 &le; 128.5<br/>gini = 0.503<br/>samples = 20<br/>value = [0, 0, 4, 3, 0, 0, 0, 2, 19, 0]<br/>class = 8>, fillcolor="#ef83d8"] ;
636 -> 670 ;
671 [label=<pixel_655 &le; 115.5<br/>gini = 0.571<br/>samples = 5<br/>value = [0, 0, 4, 2, 0, 0, 0, 0, 1, 0]<br/>class = 2>, fillcolor="#caf5b0"] ;
670 -> 671 ;
672 [label=<pixel_405 &le; 236.0<br/>gini = 0.444<br/>samples = 2<br/>value = [0, 0, 0, 2, 0, 0, 0, 0, 1, 0]<br/>class = 3>, fillcolor="#9cf2ae"] ;
671 -> 672 ;
673 [label=<gini = 0.0<br/>samples = 1<br/>value = [0, 0, 0, 0, 0, 0, 0, 0, 1, 0]<br/>class = 8>, fillcolor="#e539c0"] ;
672 -> 673 ;
674 [label=<gini = 0.0<br/>samples = 1<br/>value = [0, 0, 0, 2, 0, 0, 0, 0, 0, 0]<br/>class = 3>, fillcolor="#39e55e"] ;
672 -> 674 ;
